#Parameter# /allParams/_2 {1,61} 977 ZERO_GRAD
+1.15685940e-01 +3.35633755e-03 -2.59694040e-01 -1.23879790e-01 -3.05564314e-01 -2.19925255e-01 -1.97665334e-01 -2.74742812e-01 -2.08758533e-01 -2.87567466e-01 -8.50612223e-02 -8.60697478e-02 +2.61873543e-01 -2.46210694e-01 -1.06596649e-02 +1.29816920e-01 +7.91616738e-02 -1.87406510e-01 +6.17925525e-02 +4.32679355e-02 -1.63175762e-01 +1.02105677e-01 -1.90657720e-01 -6.82474077e-02 +3.05985332e-01 +1.58087879e-01 +2.12294161e-02 +2.42672622e-01 +2.56318212e-01 +1.35105014e-01 -1.18387058e-01 +1.96148217e-01 +1.52908802e-01 -1.94205940e-01 -3.07753205e-01 -2.97653407e-01 -6.84226751e-02 +1.74673676e-01 -1.49372846e-01 +2.09476113e-01 -2.67183781e-02 +6.34440780e-02 +1.63403660e-01 +2.41805315e-01 -1.11784935e-01 +1.83534265e-01 +1.83164984e-01 +2.39732563e-02 -5.39431274e-02 +1.46694511e-01 +1.32134825e-01 -3.03082585e-01 +1.74158007e-01 +2.49857008e-01 +7.38507509e-02 +9.74614024e-02 -1.45440727e-01 -8.76316875e-02 +1.62007809e-01 +3.05252135e-01 +1.77141458e-01 
#Parameter# /allParams/_3 {1} 17 ZERO_GRAD
-1.51836252e+00 
#Parameter# /allParams/vanilla-lstm-builder/_0 {120,160} 307201 ZERO_GRAD
-9.87534076e-02 -7.50055239e-02 -4.90738899e-02 -4.25357223e-02 -1.05712950e-01 -2.46727765e-02 -9.38862488e-02 +1.01597324e-01 -2.18847170e-02 +8.93067420e-02 -7.50007555e-02 -2.36135349e-02 -1.32648245e-01 +2.74641663e-02 +1.11088395e-01 +1.63763762e-03 +1.08659029e-01 -7.55023211e-02 -1.30743206e-01 +6.61078542e-02 +7.62076378e-02 +6.42445385e-02 +1.58056468e-02 -7.52417743e-03 -8.98286998e-02 -9.43619609e-02 +6.73577189e-04 -1.21072739e-01 +1.35770887e-01 +3.25765759e-02 -9.76654887e-02 -5.45278192e-03 +1.21313184e-01 -1.05469018e-01 -9.71605629e-02 -7.60152340e-02 +8.81407857e-02 -4.29408178e-02 +1.14584833e-01 +7.40284771e-02 -9.93266702e-03 -7.78577775e-02 -5.83017543e-02 +1.20047152e-01 +1.18949682e-01 -4.22124490e-02 -9.99590680e-02 -1.06757626e-01 +6.95981681e-02 +4.21431363e-02 -7.54877478e-02 +7.80686736e-03 +4.89283204e-02 -8.85686278e-03 -1.33661032e-01 -2.18172371e-03 +8.44766349e-02 -7.29130879e-02 -1.15680017e-01 -1.42791882e-01 +9.98296887e-02 +1.46084160e-01 -7.89726451e-02 -6.38736561e-02 +1.31125242e-01 +1.19688749e-01 -7.80002400e-02 -7.83303007e-02 +4.94098067e-02 -1.36626720e-01 -3.70590165e-02 -3.31560224e-02 -8.86584520e-02 -9.68297124e-02 +9.59886312e-02 -9.64341015e-02 -9.28648487e-02 -8.07252228e-02 -1.05377629e-01 +1.25006139e-01 +1.06875002e-02 +8.72774422e-02 +4.91615534e-02 -9.02187079e-02 -1.05095170e-01 -2.39097551e-02 +1.40935391e-01 -2.01899111e-02 +1.13175541e-01 +4.22239751e-02 -1.05709620e-01 +1.31616771e-01 +1.42819911e-01 -1.36479199e-01 +8.88173580e-02 +5.29947877e-03 -1.00398429e-01 +3.23392153e-02 -2.31757984e-02 -2.85755470e-02 +2.99280882e-02 -4.04555425e-02 -1.30314469e-01 -1.40058562e-01 -4.14687321e-02 -1.58857256e-02 +3.51747572e-02 +1.30422503e-01 -1.42735973e-01 +4.49702144e-02 -1.19640157e-01 -3.29957828e-02 +2.73048282e-02 -1.17969215e-02 +5.15550077e-02 -1.30324811e-02 +1.55952573e-02 +1.03465796e-01 +1.00404724e-01 +5.51566780e-02 +2.34045982e-02 -4.51600552e-03 -1.36147261e-01 -1.07725233e-01 -4.49363813e-02 -4.47340533e-02 +2.56931335e-02 +2.73634791e-02 -7.15129077e-03 +3.83217782e-02 +1.65383518e-03 -7.37044737e-02 -1.32303104e-01 +1.42227709e-01 +1.01591006e-01 -8.74405503e-02 +3.15166116e-02 +1.44446224e-01 +8.76368880e-02 -1.42685175e-02 +5.70288748e-02 +3.24073136e-02 +9.89735574e-02 +4.44771796e-02 -6.02853373e-02 -8.53323638e-02 -1.31393731e-01 -1.22117527e-01 -1.38114631e-01 +3.79382074e-02 -3.63796949e-03 +4.89836037e-02 +5.79468459e-02 +7.82814622e-03 -4.76261377e-02 -1.30899176e-01 +1.37179911e-01 +2.05418319e-02 -1.31642461e-01 -6.88314065e-02 +2.96589732e-03 +6.45730346e-02 -9.26670879e-02 -2.32592672e-02 -6.73159063e-02 -6.06691167e-02 +9.30997729e-03 -4.09322903e-02 -8.32577571e-02 +6.68248683e-02 +5.88055700e-02 -1.75669491e-02 +1.02424383e-01 -1.43550217e-01 -1.18493870e-01 -5.63761368e-02 -1.33019388e-01 +6.31033033e-02 +3.88119519e-02 +1.28786892e-01 -8.72038603e-02 -5.56022748e-02 +6.03336692e-02 -4.68056649e-02 +4.84583378e-02 +3.69374454e-03 -1.11130603e-01 -2.21095383e-02 +1.24433249e-01 -5.06946370e-02 +1.64477527e-02 -5.75352982e-02 -1.20594785e-01 +8.66762102e-02 +6.30149990e-02 +7.52977431e-02 +9.54328775e-02 -9.32593271e-02 +8.96381736e-02 +1.14427030e-01 -1.05256014e-01 -5.52352369e-02 -5.00643253e-03 -4.24002931e-02 +4.60861027e-02 +3.39076072e-02 +9.93753821e-02 +2.01753080e-02 +5.82985133e-02 -1.31189987e-01 +6.99476600e-02 -1.14277095e-01 -1.06479883e-01 -3.44262794e-02 +9.13268626e-02 +1.16280407e-01 -6.58258796e-04 +4.79921550e-02 +9.08594579e-02 -5.35224900e-02 -1.01547852e-01 +7.41125494e-02 +4.63305116e-02 +1.08731598e-01 -5.51226065e-02 -6.83086812e-02 +1.82554126e-03 +1.94133520e-02 +9.70590562e-02 -1.20431446e-01 -1.53666288e-02 -1.04997113e-01 +6.24692142e-02 +4.96471375e-02 -1.10385939e-01 +6.63894862e-02 +1.20891780e-01 +1.40117377e-01 -3.19459364e-02 +7.46787935e-02 +3.15762609e-02 +5.56984842e-02 -4.91555035e-03 +1.06664211e-01 -8.25339556e-03 -1.36112928e-01 -1.10397823e-01 +1.04845703e-01 +9.14419293e-02 -1.21362522e-01 +1.07265800e-01 +8.39174092e-02 +7.19051510e-02 -3.76561582e-02 -1.25825405e-01 +1.19727939e-01 -3.75413895e-03 +1.17693067e-01 +6.51923120e-02 +1.43289208e-01 +1.41605884e-01 -6.77618757e-02 -3.66891623e-02 +7.80461431e-02 +1.32136464e-01 +9.42746103e-02 +5.05128503e-03 +8.28734040e-03 -1.14419043e-01 -2.06531286e-02 +5.52616566e-02 +1.33782476e-01 -4.80604768e-02 -8.88224393e-02 -1.17324285e-01 +9.97796059e-02 -6.01996407e-02 -1.00480251e-01 +9.47350860e-02 -1.44053146e-01 -2.96209306e-02 -3.82882953e-02 +1.04629487e-01 -1.02529548e-01 +1.18982226e-01 +5.33598661e-03 -4.23115715e-02 -1.40586346e-01 -5.10123447e-02 -3.21851522e-02 +5.53470850e-02 +7.54522085e-02 +1.86668038e-02 -4.76746485e-02 +2.17892975e-02 -1.78442895e-02 +2.07442939e-02 +4.63330746e-03 -1.32506639e-01 -1.42288998e-01 +3.35275084e-02 +1.17100388e-01 +9.90979522e-02 +1.17858708e-01 -1.43807232e-01 -8.98271203e-02 -9.50100422e-02 -8.56322795e-02 +1.28611654e-01 +6.58668578e-02 -1.17953330e-01 +1.49228275e-02 -4.80514318e-02 -4.98850718e-02 +2.45541781e-02 -1.24744691e-01 +9.59424675e-02 -8.54126513e-02 -6.45454526e-02 -1.22523658e-01 +5.79507500e-02 +2.60659754e-02 -6.42473772e-02 -2.53166929e-02 -1.34041861e-01 +1.50051266e-02 +1.04884744e-01 +1.43913060e-01 +1.37444586e-01 +7.28628188e-02 -2.92973071e-02 -1.19475514e-01 +9.98268127e-02 +2.91596353e-02 -1.42008409e-01 +1.39436930e-01 -1.43404052e-01 +1.45285428e-01 +7.06638098e-02 -6.18292838e-02 -6.47253320e-02 -2.65528560e-02 +1.29923314e-01 +3.31617892e-03 +8.85838568e-02 +5.67980558e-02 -1.19824931e-01 -8.13010335e-03 +2.12773830e-02 -2.66316608e-02 -2.61033103e-02 +3.22269797e-02 +9.65498835e-02 -1.42888725e-01 -5.97758740e-02 +2.32087821e-02 +6.18665814e-02 +9.28308517e-02 -5.87875247e-02 -6.33083284e-02 -7.48721510e-02 -8.66024643e-02 -1.32950723e-01 +7.24565685e-02 -6.09811544e-02 +3.13141942e-03 +5.56880683e-02 +1.34059846e-01 -4.95831445e-02 +2.03680992e-02 +8.22180212e-02 -4.72796932e-02 +4.23808992e-02 -2.69837752e-02 -1.48804337e-02 -1.29043907e-01 +6.62260205e-02 +1.23354346e-01 -1.37871593e-01 +1.33796513e-01 +6.95320070e-02 -6.44093975e-02 +2.39442140e-02 -9.51943994e-02 -1.15291670e-01 +4.21817005e-02 -1.41846508e-01 +7.70422965e-02 +9.58422124e-02 +6.88070059e-02 -8.72301757e-02 -6.06472641e-02 +5.03634512e-02 +1.13251805e-03 -1.43300444e-02 +5.57396412e-02 +3.32183689e-02 -4.72845659e-02 +1.27370298e-01 +2.59850919e-03 +1.15926385e-01 -4.69514653e-02 +1.25468433e-01 +3.95780802e-03 -3.19915265e-02 +4.29862291e-02 +9.89639163e-02 -5.48648015e-02 +2.30914056e-02 +1.38919026e-01 +1.17644995e-01 -1.05052009e-01 -1.31854579e-01 +1.35297328e-01 +8.91320705e-02 +4.62590307e-02 -4.30904850e-02 -8.94842073e-02 +6.49804473e-02 +1.05332166e-01 -1.26964033e-01 -5.34226671e-02 -1.35443598e-01 -1.16763681e-01 +3.49985659e-02 -4.46263924e-02 -1.14764497e-01 +2.94061154e-02 -7.88139254e-02 +1.58868730e-03 +8.76316577e-02 -1.34081289e-01 +6.76931739e-02 -5.20017296e-02 +1.03273436e-01 -1.08149633e-01 +1.02387905e-01 -3.11792567e-02 +8.71152878e-02 +1.32851303e-02 +1.08451515e-01 +9.69670415e-02 -6.30838871e-02 -1.19900748e-01 -1.21919475e-01 +9.32588130e-02 -9.80816185e-02 +1.09835088e-01 -3.44649777e-02 -1.44820511e-01 -6.93122000e-02 -2.06873268e-02 -1.43169060e-01 -9.68527794e-02 -7.90465921e-02 -1.32776976e-01 -9.26604941e-02 -1.34455398e-01 +6.03618622e-02 -1.44085735e-02 -1.81739479e-02 -4.84207645e-02 -1.42306268e-01 +5.18673956e-02 -9.76700932e-02 +6.02241158e-02 -4.96131852e-02 -1.37605831e-01 -1.08821467e-01 -3.17149609e-02 +1.45723403e-01 -1.85850263e-02 -1.06428266e-02 -1.46219149e-01 -1.23737633e-01 +2.81071812e-02 -1.22538574e-01 +1.30686700e-01 -8.22449476e-02 -8.23662579e-02 +6.04351908e-02 -1.14327982e-01 -4.62786481e-02 -6.60191476e-02 +2.62790173e-02 -9.31064710e-02 +3.93413603e-02 +9.70181972e-02 -2.85554230e-02 -1.05398759e-01 +6.62373453e-02 +7.58195519e-02 -1.39823079e-01 -2.73386240e-02 +2.39928514e-02 -1.87638253e-02 +1.17225289e-01 +1.25117451e-01 +3.13087255e-02 +1.26325369e-01 +1.13256514e-01 -4.80364636e-02 -4.89532948e-04 -1.42075703e-01 -4.36031073e-02 -1.27749115e-01 +6.58643246e-02 -1.29404321e-01 +1.13057286e-01 +9.68132466e-02 +9.74673480e-02 +9.94492769e-02 -1.23483837e-02 +3.40523273e-02 +3.41926664e-02 -8.88013765e-02 -5.38683385e-02 +1.45753771e-01 -1.04061961e-01 +1.07692331e-01 -5.57298586e-02 +1.31779253e-01 -1.78173333e-02 -1.17143802e-01 +3.54366899e-02 +1.02036551e-01 -1.14579841e-01 +3.83052826e-02 -1.31088138e-01 +5.16642779e-02 +1.04296327e-01 +1.32444590e-01 +4.51468825e-02 -1.07861429e-01 -9.15551484e-02 -8.81431177e-02 -1.27883822e-01 -6.87314793e-02 -9.96462256e-02 -1.24671549e-01 -1.43418834e-01 +1.22683764e-01 +1.00259036e-02 -1.44037768e-01 +1.41268909e-01 +1.27801865e-01 +1.00619256e-01 +1.11793637e-01 +1.22923493e-01 -4.57351580e-02 +1.01918146e-01 +6.33352101e-02 -1.14859670e-01 +1.24629825e-01 +2.25496292e-03 -9.00615603e-02 +5.34218550e-02 -1.46069393e-01 -9.02751088e-02 +1.25356555e-01 +2.61293352e-02 -6.94164038e-02 +1.26446426e-01 +5.67575842e-02 -1.03156716e-01 -3.44733819e-02 -5.63663542e-02 -9.11325291e-02 +5.20449430e-02 +3.19758654e-02 +9.73557383e-02 -2.97635198e-02 -5.06508723e-02 +3.71499211e-02 -8.48973691e-02 +7.00002611e-02 -3.56016681e-02 +1.18961692e-01 -3.38000283e-02 +8.71903002e-02 +1.07988268e-01 +1.72602385e-02 +7.82005638e-02 +4.96791750e-02 +2.64100730e-02 +1.29077703e-01 -8.88837129e-02 -6.25024438e-02 +8.83069932e-02 -3.96054983e-02 +1.09239429e-01 +9.95531231e-02 -1.37329608e-01 -1.53170377e-02 -5.92041984e-02 +1.45319879e-01 +8.19217116e-02 +1.01892442e-01 +6.75533116e-02 -7.86808133e-02 -1.30893722e-01 -7.21544698e-02 +5.73436916e-02 -6.52180389e-02 +1.26424640e-01 -9.11145657e-02 -4.87909913e-02 -1.01416767e-01 -5.85082844e-02 +1.74671412e-03 -4.42827493e-02 -9.67264101e-02 +8.70356560e-02 +3.24147940e-02 +1.01030320e-01 -1.07727945e-03 -1.43083066e-01 +1.09402716e-01 -1.00670338e-01 -7.60743991e-02 +1.32529736e-02 -8.76336396e-02 +5.70183247e-02 -7.56446943e-02 -6.58871904e-02 +8.57565552e-02 +5.65029234e-02 -8.93061310e-02 -1.02977253e-01 -1.27375036e-01 +4.00961936e-03 -1.20888643e-01 -8.17456841e-03 +1.12362266e-01 +2.90641338e-02 +8.82304162e-02 -1.63184106e-02 -3.90273631e-02 -2.52603143e-02 +1.19988054e-01 +4.46531177e-03 -5.09112775e-02 +2.15409696e-03 +1.30147427e-01 +1.00971833e-01 +1.41360015e-02 +7.38599747e-02 +6.75020218e-02 +1.21287674e-01 -6.69179857e-03 +1.56136751e-02 -1.22343801e-01 -9.77996737e-02 -1.02209374e-01 -1.00146577e-01 -6.62111193e-02 -3.04737687e-02 +3.42749208e-02 +2.98247784e-02 -5.32109663e-02 -1.26159012e-01 +1.00450367e-02 +9.54843163e-02 +1.38683349e-01 -7.97873363e-02 +9.15834904e-02 +1.33501023e-01 +1.08582675e-01 +1.08899176e-03 -7.47528821e-02 -8.27285871e-02 +1.83093548e-02 +2.53814757e-02 -3.51106450e-02 +1.27946347e-01 -3.47441435e-03 -1.22845575e-01 -8.87554735e-02 +1.12346977e-01 -5.27992547e-02 +1.33585036e-01 -7.10068271e-02 +1.14905089e-02 -1.00123420e-01 -6.14439175e-02 +5.54392636e-02 -6.94845095e-02 -1.42099723e-01 -2.77996510e-02 +6.77024573e-02 -7.07790256e-03 -4.00471687e-03 +9.89882350e-02 +5.88659644e-02 -8.53539184e-02 -9.61890072e-02 -9.68994200e-02 -7.72848725e-02 +8.87728781e-02 +1.29298419e-01 +1.40707493e-01 -6.55755252e-02 +5.69473505e-02 +1.25816345e-01 +1.04381710e-01 -4.76858094e-02 +1.03120774e-01 +4.89331782e-02 -4.52399254e-04 -1.16401389e-01 -2.09116936e-03 +1.11870915e-01 +7.12010264e-03 -1.13601498e-01 +3.28393579e-02 +1.31137371e-01 +1.43510729e-01 +5.86543530e-02 +9.23891962e-02 +2.03856826e-02 -3.22367027e-02 +8.21453631e-02 -1.00458279e-01 -3.85780558e-02 -6.73076659e-02 -6.81893528e-03 -5.68407625e-02 +1.40228868e-01 -1.76767707e-02 -1.19583622e-01 -9.20075774e-02 +8.75613093e-02 +1.19433463e-01 -1.41003713e-01 +9.05464292e-02 +1.26780570e-03 +9.45128202e-02 -1.04322918e-01 -8.07520077e-02 +6.68828040e-02 -8.72156993e-02 +3.73131186e-02 +7.97279924e-02 +8.00865889e-02 -8.84040222e-02 -1.35353655e-01 -9.23142284e-02 +1.06920809e-01 -1.21664859e-01 +6.56765997e-02 +1.33236647e-01 +1.25736058e-01 -8.21100473e-02 -4.62874100e-02 -4.74747866e-02 -1.40429661e-01 +2.05271989e-02 -1.17946073e-01 +3.36022675e-02 -8.38029608e-02 +1.67475343e-02 -1.03430301e-01 +1.53626502e-03 -1.15305424e-01 +1.17816061e-01 -1.34204999e-01 +8.72646868e-02 -2.01679617e-02 +4.34153825e-02 +4.14002538e-02 +1.07831955e-02 -1.29129738e-02 -3.19829583e-03 -7.69601613e-02 -2.13082582e-02 +8.34711194e-02 +5.29287755e-03 +1.11666322e-01 +1.35249913e-01 -1.36870965e-01 -1.08072951e-01 -1.44389182e-01 -1.03102706e-01 -6.12075105e-02 -7.18549564e-02 +5.43661714e-02 +6.33736849e-02 -1.13568932e-01 +1.75209492e-02 +7.90591240e-02 +6.03990257e-03 +3.10891122e-02 -1.45169377e-01 +5.50711900e-02 -4.74566892e-02 -3.22473049e-03 +8.85994136e-02 -8.52244124e-02 +4.32576984e-02 -7.11323470e-02 +3.59475315e-02 -1.40839189e-01 -8.53374526e-02 -3.80837247e-02 +4.12443280e-02 -4.65204418e-02 +1.01177767e-01 +5.00434488e-02 -1.43256247e-01 +1.28511578e-01 -1.39034972e-01 -1.11273378e-01 +5.12627512e-02 -8.54311213e-02 -2.35015675e-02 -8.49727020e-02 +1.35841370e-01 +5.81783652e-02 -2.52945200e-02 -1.17700756e-01 +2.96548605e-02 -1.33735254e-01 +8.61754417e-02 +7.15577006e-02 -5.10307476e-02 +7.57454336e-03 -3.47253010e-02 -1.40069723e-01 +1.32175058e-01 +1.25841856e-01 -4.52837348e-03 +1.41086578e-01 +1.04042888e-01 -2.61865407e-02 -9.18232203e-02 +1.34931177e-01 +2.48916894e-02 +1.06565773e-01 -1.72345787e-02 -9.90490615e-02 +1.14030480e-01 -4.39189076e-02 +6.36263639e-02 -1.17070712e-01 +1.01689965e-01 -8.98702443e-03 -6.83835521e-02 +1.33142859e-01 -1.21940181e-01 -1.02555722e-01 -1.24543980e-01 +4.52595949e-02 -7.34787360e-02 -8.07943419e-02 -7.06268772e-02 -1.23122886e-01 +9.56777930e-02 +1.17480576e-01 +5.38383871e-02 -9.58733037e-02 +1.15761220e-01 -5.81296757e-02 +1.23835355e-02 +4.82742339e-02 -5.86576760e-02 +4.50512767e-03 -1.07103765e-01 -6.02714419e-02 +7.06838369e-02 -7.13882819e-02 -2.97872797e-02 -1.29540294e-01 -1.42805099e-01 +1.36223346e-01 -3.21477652e-04 -1.28146932e-01 +4.02598530e-02 +8.65590125e-02 +1.13281190e-01 +1.33600384e-01 +5.68716228e-03 +6.02541268e-02 +5.94455153e-02 -1.15514793e-01 +8.89729410e-02 -9.57898051e-02 -1.40753865e-01 -1.21689588e-02 +3.96863073e-02 -1.17125235e-01 +2.43642330e-02 +1.21053904e-01 -7.96426609e-02 -1.25843436e-01 +1.04451209e-01 -5.97109646e-02 +1.19440943e-01 -1.26326591e-01 -4.74120602e-02 +5.62126189e-02 -1.11787841e-01 -1.01461828e-01 +1.36028528e-01 -1.13013655e-01 +1.75330937e-02 +7.17651993e-02 +6.96900636e-02 +5.44257015e-02 +3.89374793e-02 +1.00068882e-01 -1.18971661e-01 -7.79077485e-02 -4.06465232e-02 +2.82925963e-02 +3.07769626e-02 +9.16872323e-02 +7.78388679e-02 +1.44730866e-01 -6.90203235e-02 -1.77802444e-02 +3.92521024e-02 +1.05514616e-01 +6.41239733e-02 -6.10564351e-02 +4.99865413e-02 -8.62265378e-02 +9.29478556e-02 +5.57300448e-02 +5.19749671e-02 -1.15491517e-01 -1.21770389e-01 +5.23553342e-02 +2.98024118e-02 -1.97110474e-02 -9.20866728e-02 +1.38851702e-01 +1.29953444e-01 -3.08317393e-02 +1.39189154e-01 -8.12746584e-03 +4.68363911e-02 -3.27576846e-02 -9.41523910e-03 -8.54165182e-02 -3.46985608e-02 -3.56172472e-02 -1.80828571e-02 +2.22693384e-02 -1.21437013e-03 -1.14302248e-01 -1.04784399e-01 -1.16173133e-01 +6.67800605e-02 +9.75704640e-02 +4.78683859e-02 -6.02564141e-02 +1.07576519e-01 -9.38418806e-02 +1.02311864e-01 +4.31788117e-02 -3.28772888e-02 -1.08423635e-01 +1.39903575e-01 +1.38587862e-01 -1.33504733e-01 +1.45317763e-01 -1.26023367e-01 -1.16299912e-01 +1.10429108e-01 -2.29633674e-02 +1.00527659e-01 -4.18327600e-02 +7.83185661e-02 +4.00996953e-02 +4.65809107e-02 +9.80285555e-02 +6.50997907e-02 -8.83893594e-02 -1.19238973e-01 -6.32645413e-02 +3.16931456e-02 +1.29186183e-01 -1.07828319e-01 +7.42506385e-02 -4.82081622e-02 +6.44954145e-02 -6.04493693e-02 +7.96083957e-02 -2.24100053e-02 +9.97023284e-02 +4.84391898e-02 -2.36197263e-02 +1.46093339e-01 -4.71465588e-02 +4.13003564e-03 -8.83497223e-02 +6.04604930e-02 +2.76582688e-02 +4.12631631e-02 -9.36262608e-02 +1.32074863e-01 +8.20184052e-02 +5.36189079e-02 -4.72263992e-03 -1.11364037e-01 +1.06810898e-01 +5.15628606e-02 +1.08077347e-01 +2.17822790e-02 +1.21028125e-02 +1.19025320e-01 -5.04556820e-02 -8.48196074e-02 -7.70261586e-02 -8.01310092e-02 +1.31205916e-01 -1.43077880e-01 -1.07149750e-01 -8.43288004e-03 -7.49141574e-02 +1.20384216e-01 -1.57889277e-02 -7.85578713e-02 +1.05552644e-01 -8.53950977e-02 +5.52719384e-02 -1.31935775e-02 -8.78581554e-02 +1.04875892e-01 -1.90604329e-02 -1.24337912e-01 -1.68810785e-02 -5.33579886e-02 -4.08276394e-02 +1.50276721e-02 +1.25300944e-01 +8.13566446e-02 -1.24130487e-01 +1.41422778e-01 +3.94121706e-02 +9.26707536e-02 -6.68970197e-02 -1.02007352e-01 -6.40027672e-02 -1.36808276e-01 -8.20008516e-02 -2.05634087e-02 +1.73163265e-02 -5.07853404e-02 -9.59172845e-04 +3.70817035e-02 -3.56606469e-02 -1.01867609e-01 -6.21404350e-02 -8.40378404e-02 +1.15910590e-01 -1.00770332e-01 -6.62966669e-02 -8.19014981e-02 -5.11798263e-03 +2.68507302e-02 +1.04130328e-01 +8.91639143e-02 +6.18861616e-03 -3.98207456e-02 +1.08206868e-01 +9.41351205e-02 -9.38426405e-02 -2.05110908e-02 -4.90546823e-02 +8.08544308e-02 -1.27062365e-01 -1.13812864e-01 -4.50242609e-02 -6.51426986e-02 +1.22743458e-01 -1.41727358e-01 -2.01407075e-02 +1.08627915e-01 +1.00700378e-01 +1.17344588e-01 -1.23889133e-01 +5.98462075e-02 +6.97529763e-02 -3.14369798e-04 +5.19893616e-02 +9.75106359e-02 -1.10852882e-01 -1.10417366e-01 +7.73509890e-02 -3.21615264e-02 +2.04242915e-02 +9.81123596e-02 -4.60982323e-03 +8.51380527e-02 -1.15656435e-01 -2.92354748e-02 -1.08596981e-01 -1.15344614e-01 -6.30604997e-02 -2.75391787e-02 -1.33693963e-02 +9.02236998e-03 -5.87730408e-02 +8.85372013e-02 -3.50708589e-02 +9.60230827e-04 +1.08044267e-01 +8.72986466e-02 +3.51766795e-02 -1.07367009e-01 -1.29516542e-01 -8.83530304e-02 +1.45576298e-01 +1.12375468e-02 +1.13878310e-01 +1.27278328e-01 -5.20391390e-02 -5.46621531e-02 -2.68721133e-02 -6.95906430e-02 +1.65048987e-02 -2.65215039e-02 -1.60736889e-02 +1.43582076e-01 -4.96470928e-02 +1.09289408e-01 -3.97495627e-02 -7.12784529e-02 +4.85901535e-02 -2.74035633e-02 +2.62782872e-02 +1.33251667e-01 -2.52003819e-02 -7.63770863e-02 +1.33083880e-01 -1.07764557e-01 -1.12803280e-02 +7.29086548e-02 +7.59307295e-02 +1.45303160e-01 -9.32692587e-02 -9.05060172e-02 +1.34161770e-01 -5.21544740e-02 -1.08367354e-01 -1.07809022e-01 -3.20568681e-04 -4.61732224e-02 +8.53928626e-02 -6.45574555e-02 +6.15683198e-03 -7.54927099e-03 -1.28101736e-01 -9.77099091e-02 -1.40682399e-01 -1.04346976e-01 -1.52426064e-02 -1.15920201e-01 -2.54493952e-03 +8.46930295e-02 +1.26984119e-01 +2.86015868e-03 +2.18732208e-02 -1.69651359e-02 +1.01197302e-01 -8.21690783e-02 +1.44089758e-02 -2.20680684e-02 -1.41607672e-01 -6.31504878e-02 -8.44200552e-02 +1.05509818e-01 +5.40607125e-02 +1.23329431e-01 +1.14254981e-01 -9.35097486e-02 -8.73563737e-02 +1.04864091e-01 +1.05622530e-01 -7.65683725e-02 -7.27894902e-03 +5.99355549e-02 +6.29185736e-02 -2.47690529e-02 +6.39433265e-02 -3.69670317e-02 -6.38343617e-02 -1.24005154e-01 -1.39336005e-01 +3.87094170e-02 -4.81506586e-02 +2.02599168e-03 -8.84207338e-02 +2.28077173e-03 -1.01910867e-01 +1.41622841e-01 -1.16846129e-01 +1.31089270e-01 +1.60085410e-02 +1.25475138e-01 -8.20196867e-02 +1.09911829e-01 -8.83889049e-02 +6.58077002e-02 +1.08939201e-01 -1.05820335e-01 -6.60931915e-02 +1.40477508e-01 -8.41841102e-03 -1.21940672e-03 -2.08526403e-02 -5.04550710e-02 -5.90987429e-02 -8.21338817e-02 +1.42303258e-02 +3.20030302e-02 -1.32989541e-01 +6.29444420e-02 +5.32276034e-02 +7.55207539e-02 +1.21641010e-01 -4.22679856e-02 +9.16325003e-02 -3.22915763e-02 -6.37179390e-02 -1.46240726e-01 +8.69334489e-02 -1.22741111e-01 -3.42704505e-02 +8.04882050e-02 +4.59721237e-02 -5.72725385e-02 -4.67749387e-02 +6.16908669e-02 -5.39341271e-02 +6.81137443e-02 +3.77233326e-02 -6.32048771e-02 -9.55068171e-02 +1.02871642e-01 -6.37930185e-02 +4.81172055e-02 +6.97697401e-02 +5.34541905e-02 +7.80224800e-03 +7.24649727e-02 +1.94449723e-03 -5.62070310e-03 -6.88249916e-02 -1.04253918e-01 +5.41284680e-02 -7.92136490e-02 +4.38103527e-02 +1.30562305e-01 -1.23109452e-01 +6.16918951e-02 -6.85449988e-02 -9.83236432e-02 -1.19808890e-01 -6.58104345e-02 +8.16214979e-02 -6.11650944e-02 +2.83850282e-02 -8.58713537e-02 -4.71653044e-03 -1.26220480e-01 +3.72709632e-02 -1.39616355e-01 +5.84798008e-02 +7.94115514e-02 -1.40361130e-01 -1.41533867e-01 +1.23933554e-01 +2.59281993e-02 -1.14461780e-02 -7.38794282e-02 +1.21138126e-01 +6.46813661e-02 -3.65890190e-02 -9.50590000e-02 -3.55222076e-02 +6.89256936e-02 -6.11555278e-02 -3.84549797e-02 +5.72248250e-02 +1.02240935e-01 +3.14532071e-02 +1.29135430e-01 -1.21443026e-01 +3.47491652e-02 +1.31893694e-01 +9.25993472e-02 +4.53615934e-02 -8.21234211e-02 -1.01117939e-01 -1.12361625e-01 +7.34168887e-02 +6.35427088e-02 -1.07051015e-01 +1.37551248e-01 +7.10691214e-02 +8.73861462e-02 -8.04788396e-02 -1.20389692e-01 -5.33365384e-02 -1.31407082e-01 -1.07658193e-01 -2.61936635e-02 -2.65460312e-02 -1.06223091e-01 -1.48115307e-02 +1.07950389e-01 +9.79264379e-02 +1.07737929e-01 +1.38857156e-01 +1.14240676e-01 +4.84627932e-02 +5.72870821e-02 -7.55327940e-02 +1.27583414e-01 -4.09457758e-02 +4.32908535e-04 +1.16392791e-01 -8.33059400e-02 +2.34337896e-02 -6.36838078e-02 +1.14634633e-04 +5.51123470e-02 +1.23829991e-01 +7.93652087e-02 -3.88126075e-02 +8.14716518e-02 -1.42065659e-01 -5.85141256e-02 +9.59175229e-02 -1.18250161e-01 +3.20724398e-02 -2.09193528e-02 -1.17538571e-01 -1.18243188e-01 +1.45988196e-01 -5.09895235e-02 +7.31750578e-02 +1.27520621e-01 -7.12849200e-03 -8.82968009e-02 +2.55533606e-02 -3.76502052e-02 +6.38758838e-02 -8.21794569e-03 +4.47195768e-02 -8.58601406e-02 -1.15879789e-01 -8.99666026e-02 +9.14182812e-02 -8.70626047e-02 +7.11435825e-02 -1.34248987e-01 -1.13240525e-01 +5.10198176e-02 +1.12317204e-01 -4.64486405e-02 +9.84018743e-02 +1.47646964e-02 +1.34427518e-01 -9.90722328e-02 +1.38007343e-01 -2.31169760e-02 -7.07831681e-02 -1.13637872e-01 -1.26411289e-01 +9.32532549e-02 -6.76691905e-02 -1.29420877e-01 -5.62464595e-02 -1.04582347e-01 +5.30809164e-02 +9.76919532e-02 +1.18575752e-01 +3.74909341e-02 +4.44888324e-02 +4.64444906e-02 -1.22035265e-01 -1.26218960e-01 +1.17970586e-01 -8.77429694e-02 +8.91245157e-02 -6.17682189e-02 +3.29952687e-02 +1.42790169e-01 +1.19239241e-01 -5.91875240e-02 -8.40109587e-03 -1.38645262e-01 +3.38386744e-02 -1.37729123e-01 +1.39989525e-01 -1.32595330e-01 -9.03530866e-02 -6.38431981e-02 +9.56191868e-02 +5.64381480e-02 -7.66985491e-02 -6.36413991e-02 -1.15038909e-01 +1.09513611e-01 -7.70869479e-02 -1.17009565e-01 +2.94333547e-02 -5.11208624e-02 +8.70283246e-02 -5.08888140e-02 -1.36420339e-01 +1.42814428e-01 -1.02067083e-01 -9.68697220e-02 -9.46511477e-02 +6.53574467e-02 +7.46341199e-02 +5.86145371e-02 +8.21856707e-02 +7.74829984e-02 -1.16121806e-01 -4.57276404e-03 -1.05320439e-01 -1.16290279e-01 -8.27997327e-02 +6.15457147e-02 +1.77273154e-02 +1.48499906e-02 -1.17233396e-02 -9.43251550e-02 +9.07426327e-02 -8.83521438e-02 -1.34459138e-02 -1.15782171e-01 +3.80321145e-02 +1.39956832e-01 -1.21632069e-02 +7.76612610e-02 +3.66694927e-02 -4.59549129e-02 +3.34933251e-02 +4.20602858e-02 +4.53128964e-02 +1.05111510e-01 -1.41012669e-02 -3.51202488e-02 -9.84339938e-02 -1.08920448e-01 +9.97224301e-02 +3.52226347e-02 -1.14163682e-01 -2.59435102e-02 -8.15941393e-02 +2.94353515e-02 +1.56708062e-02 +6.89226985e-02 -1.05109513e-02 -5.97814843e-02 -1.38194889e-01 -4.70699966e-02 -8.20516199e-02 +7.79285282e-02 +9.93967056e-03 -1.00533903e-01 -9.25752670e-02 -1.04594663e-01 -1.14024445e-01 -1.22899860e-02 -1.19586788e-01 -1.30638927e-01 -5.56518808e-02 -1.41824171e-01 -4.59201857e-02 +9.98182148e-02 -1.27066791e-01 +4.94562984e-02 +3.90969962e-02 +5.08951247e-02 -9.53086317e-02 -2.31217369e-02 +4.05485332e-02 -6.40378892e-03 -1.11157551e-01 -1.07566595e-01 +6.95608556e-02 -6.44549578e-02 +3.76312882e-02 -6.42399490e-03 -6.68277964e-02 +4.86335903e-02 +1.80535167e-02 -1.36695012e-01 +5.15967607e-02 +1.32670194e-01 -7.32945800e-02 +5.71723729e-02 +3.79991233e-02 -7.70067275e-02 +1.16121471e-01 +1.14830583e-01 -2.06434429e-02 -1.27105981e-01 -3.41516212e-02 -1.01936013e-02 -6.85058683e-02 +6.46940470e-02 -8.18828717e-02 -9.51812267e-02 +1.28021717e-01 +5.82775623e-02 +5.20794541e-02 +4.02651876e-02 +7.42642432e-02 -8.17144960e-02 -5.40484414e-02 +2.49543935e-02 +4.14028168e-02 -3.90431583e-02 +3.78939807e-02 +1.64379925e-02 -4.56075445e-02 +1.02260262e-01 +1.23596519e-01 -2.49592066e-02 -6.21460155e-02 +2.03319788e-02 +5.95614314e-03 -9.91254896e-02 +1.01987258e-01 -3.08416635e-02 +1.16358340e-01 -1.12610847e-01 -6.92201480e-02 -1.25043273e-01 -1.18804678e-01 -9.28418189e-02 +9.39438194e-02 +7.33381361e-02 -1.92824155e-02 +2.99512446e-02 -1.22632384e-02 -1.06031686e-01 -1.32489532e-01 +1.03902400e-01 +6.10479712e-03 +7.60798007e-02 +7.81442225e-03 +9.24870372e-04 +1.16341054e-01 +5.90188801e-03 -1.37734786e-01 -5.04807606e-02 +1.13442510e-01 +1.40661240e-01 +6.87239915e-02 -7.80207887e-02 +1.09676063e-01 -7.97400773e-02 -3.36808935e-02 -2.29008421e-02 +4.59823310e-02 -3.22205275e-02 -9.69789922e-02 -6.48664311e-02 +1.11756951e-01 -4.95908111e-02 -3.64481881e-02 +6.58076704e-02 +1.03629529e-02 -3.24789882e-02 -1.34416744e-01 -1.03674546e-01 +7.40986019e-02 -4.53565121e-02 -4.38620746e-02 -4.22650576e-03 +1.01368546e-01 +8.00733566e-02 -9.39172506e-02 -6.69943467e-02 -1.44559622e-01 +1.74239874e-02 -8.89240205e-02 -4.81341556e-02 -1.24240570e-01 -8.64928812e-02 -1.00822076e-01 +6.94506466e-02 -4.11084965e-02 -1.43673137e-01 +7.39973187e-02 -3.10879126e-02 +1.30352348e-01 +5.14199138e-02 +8.98890197e-02 +4.43303138e-02 -5.86848035e-02 -1.05376549e-01 -3.15461978e-02 -1.16306320e-01 -6.25708103e-02 +1.28200054e-02 +1.32581443e-02 +2.60949135e-03 -1.18961290e-01 +1.21723950e-01 +1.32286996e-01 +1.45741940e-01 +7.27164596e-02 +5.59027046e-02 +2.13012099e-04 +6.98885322e-03 +5.54649979e-02 +1.20487571e-01 -3.67580354e-02 +3.10221016e-02 +2.90341377e-02 +8.05327296e-03 -1.46235764e-01 -1.12027153e-01 -7.38856196e-02 -1.28309727e-01 -1.47950053e-02 -3.90579775e-02 +8.17428678e-02 +8.57697129e-02 -3.46082747e-02 +8.56090784e-02 +1.43518358e-01 -1.05146796e-01 +4.97374237e-02 -1.02562547e-01 +4.42082584e-02 -5.84081933e-02 -5.09776324e-02 +4.83306944e-02 +1.32290125e-01 -8.92835706e-02 +1.47051364e-02 -1.34612009e-01 -1.29718989e-01 +1.18223906e-01 +3.86458933e-02 +1.23259693e-01 -1.02163061e-01 -7.38829374e-04 +3.02905887e-02 +1.14644766e-02 -9.21444446e-02 +1.00216106e-01 +8.09728503e-02 +3.14363688e-02 -1.38521671e-01 -6.68757111e-02 -8.25935230e-02 +1.24725729e-01 +1.08450800e-01 +7.63307512e-02 +1.24168903e-01 +1.51431262e-02 -1.10570237e-01 +8.32877755e-02 -6.12570047e-02 -9.00445506e-02 +4.07571793e-02 +3.10748965e-02 -8.38496983e-02 -4.82585579e-02 -3.18202451e-02 -3.93658057e-02 -2.40327418e-03 +1.26405180e-01 -1.99361295e-02 -2.92197093e-02 -1.38557643e-01 -1.39194876e-02 -1.32480890e-01 +1.21599674e-01 +1.83519721e-02 -2.98678875e-04 -1.02108225e-01 -1.29240766e-01 -1.01070106e-03 +6.90720528e-02 +7.22076148e-02 -1.24962032e-02 -1.43593118e-01 -5.04699647e-02 +5.91382980e-02 -4.81886864e-02 -4.88071069e-02 +6.30187243e-02 +4.58967686e-03 -5.12527153e-02 -4.82730567e-02 +6.41346872e-02 -4.18909490e-02 -1.44716814e-01 +5.51639348e-02 -1.07956685e-01 +4.71414626e-03 +1.09813184e-01 -5.51385283e-02 -1.25383630e-01 +8.08075368e-02 -6.92970306e-02 +1.08029842e-01 -6.32302165e-02 +2.91259587e-03 +1.21532381e-03 +6.51019365e-02 -5.90887815e-02 +4.16418016e-02 +4.12412435e-02 +1.23390943e-01 +3.93933058e-03 -1.08727515e-02 +9.31206346e-02 +9.50182229e-02 -1.12236142e-02 -1.04959324e-01 +6.23878688e-02 +1.16579562e-01 +9.99846458e-02 +1.25181526e-01 -1.33806616e-01 +3.40525657e-02 +6.10389411e-02 +6.27941787e-02 +1.17365420e-01 +3.55905592e-02 +2.50791162e-02 +8.32948536e-02 +2.36116201e-02 -1.22523397e-01 -5.24000525e-02 -1.46289557e-01 +1.74687803e-02 +9.92794335e-02 +1.03361800e-01 -5.65634146e-02 -1.04680680e-01 -6.18110225e-02 +1.18720978e-01 +4.16179001e-02 +5.25549054e-04 -1.32086128e-01 -1.17065102e-01 +1.41110331e-01 -1.18875831e-01 -1.65209472e-02 -1.55694187e-02 +7.84737021e-02 +1.13200039e-01 -9.14041623e-02 -3.03981379e-02 -1.15812868e-02 -5.83946481e-02 -7.89393261e-02 -1.44802794e-01 +1.33807927e-01 -7.06012771e-02 -1.25661790e-02 +1.08520210e-01 -1.31912380e-02 +6.10129535e-03 +4.93739694e-02 -5.50376251e-02 -2.99296603e-02 +9.74465609e-02 +8.93527418e-02 +8.20025206e-02 +2.90847272e-02 -1.45746231e-01 +1.22558773e-01 -6.53982610e-02 -5.11206761e-02 +4.13919240e-02 +7.39784539e-02 -1.28757134e-01 -7.15148449e-02 +2.97868997e-02 -1.05948292e-01 -3.11557949e-03 +1.13452584e-01 -7.99776986e-02 -4.01655510e-02 +4.54068482e-02 +1.89249367e-02 +1.25492603e-01 +8.43449235e-02 -5.67405969e-02 +4.79239225e-02 +3.64438593e-02 +6.16851747e-02 -2.72890031e-02 -5.75306937e-02 +1.26920730e-01 -1.32718354e-01 +8.66513997e-02 -9.09680873e-02 +5.98903298e-02 -5.41744232e-02 +5.24011701e-02 -5.89814782e-02 +1.28233284e-02 +3.04338485e-02 +2.09957361e-05 -1.23522572e-01 -1.27903491e-01 -1.33631915e-01 +6.05685562e-02 +3.11751962e-02 -7.69397840e-02 +1.03417739e-01 +3.60396653e-02 +7.97578841e-02 -6.79445565e-02 +1.04287952e-01 -5.79303205e-02 +1.22795016e-01 -1.20765999e-01 -3.69326770e-03 -1.33521169e-01 -1.34218186e-01 +1.31012022e-01 +1.79007053e-02 +5.62218428e-02 +1.71871483e-03 -5.71171641e-02 +3.73403728e-02 +1.28864348e-01 +1.02576062e-01 -8.18316266e-02 -1.28554702e-01 +1.26794904e-01 +8.21325481e-02 -8.67255256e-02 +1.30871981e-01 -1.85980201e-02 +4.45062071e-02 +2.77853906e-02 -9.85197127e-02 +1.01007044e-01 +1.40125483e-01 -1.40156254e-01 -1.47372484e-04 -2.19237059e-02 -9.75481048e-02 +8.39609057e-02 +8.27283412e-02 -1.15615964e-01 +6.06060326e-02 +4.45437431e-02 +5.25451899e-02 +8.60392451e-02 +7.42824376e-03 +4.63760942e-02 -1.33893222e-01 -3.03634107e-02 +8.74182582e-02 +6.42523021e-02 +3.06178480e-02 +9.84036624e-02 +1.11620337e-01 +7.49680251e-02 -9.57606733e-02 +2.10884511e-02 +6.13483936e-02 -3.48323211e-02 +5.64582795e-02 +4.85140085e-03 -7.68950507e-02 -9.93979424e-02 +4.92923260e-02 +4.58664745e-02 -6.36954382e-02 -1.95065141e-02 +8.03194493e-02 +1.38064235e-01 +1.34339005e-01 -4.70679998e-02 -1.28955543e-01 +1.43821776e-01 -1.21584207e-01 +1.00683823e-01 +8.08140635e-02 +6.18467629e-02 -9.39606577e-02 -1.88602209e-02 -1.35725915e-01 +1.12211645e-01 -3.63145769e-03 -4.28558215e-02 +7.48838186e-02 -6.41918629e-02 +1.02922797e-01 -4.98888195e-02 -1.18537940e-01 -5.41058928e-02 +4.08672392e-02 +2.66381055e-02 +1.38713747e-01 -9.06402767e-02 -5.77043146e-02 -5.45462966e-02 -5.60508966e-02 +1.03534505e-01 +4.40344214e-04 -2.92724371e-02 +5.15766144e-02 +1.00133151e-01 +2.89192647e-02 -9.85647738e-03 -7.54491463e-02 -1.98919773e-02 -1.13182895e-01 +5.67424744e-02 +1.15090877e-01 -1.02487437e-01 +4.47487384e-02 -1.03983238e-01 +1.23062044e-01 +4.97319251e-02 -9.08754766e-02 -6.52040988e-02 +5.11766821e-02 +1.23614758e-01 +9.05592144e-02 +6.98784739e-02 -5.72141558e-02 -6.84530884e-02 +9.62424427e-02 +1.87893510e-02 -5.01517430e-02 -2.05407143e-02 +5.33149242e-02 -9.87909585e-02 -8.33550245e-02 -6.81012943e-02 +9.32947546e-02 -1.04485750e-02 -9.17031467e-02 +5.15897423e-02 -2.52868533e-02 +1.21129125e-01 -3.47509384e-02 -1.55643672e-02 +1.25990599e-01 -9.23310816e-02 -1.10649496e-01 -5.52458838e-02 +5.38406670e-02 -4.06960547e-02 +9.17571932e-02 +3.04942876e-02 -1.39232621e-01 +1.13736063e-01 -2.95385718e-04 -6.96727931e-02 +3.89531255e-03 -1.98188424e-03 +6.14925474e-02 -1.34529382e-01 +6.56180680e-02 -1.37475908e-01 +8.32115114e-03 -1.08832389e-01 -9.64174718e-02 +9.85723436e-02 -1.19773328e-01 +3.64975184e-02 -6.47110716e-02 -1.30764127e-01 +1.34807587e-01 -3.20091546e-02 +4.33494002e-02 +1.51918232e-02 +6.77813888e-02 +1.09980673e-01 -1.14117146e-01 -1.39853328e-01 +3.56718898e-02 +5.87470978e-02 -6.87301010e-02 +5.73104322e-02 +1.21564686e-01 -6.99382126e-02 -1.43218294e-01 -1.01984695e-01 -1.08500600e-01 -1.16110727e-01 +1.59037113e-03 +3.29015106e-02 +1.18203819e-01 -4.89153489e-02 -1.39127851e-01 -1.24339551e-01 -1.40556693e-02 -8.12638178e-02 +3.75644714e-02 +9.06260312e-03 -3.52462083e-02 -1.29577115e-01 +9.79878604e-02 +8.24117959e-02 -1.40573084e-03 +1.13338321e-01 +5.83638996e-02 +1.25401229e-01 -1.45184860e-01 -1.30438715e-01 +1.43131584e-01 -5.39952219e-02 +5.12233973e-02 -1.18818626e-01 +1.48714632e-02 -1.18609078e-01 +1.25840843e-01 -1.30108029e-01 +1.28763765e-01 +1.87456608e-02 -2.67113596e-02 -3.75101417e-02 +3.73705328e-02 +4.50413823e-02 +6.54024780e-02 +1.24224395e-01 -1.05157703e-01 -8.95847231e-02 -1.13053620e-03 -9.55530480e-02 -6.76382408e-02 -4.87120971e-02 -7.57149830e-02 -1.35446012e-01 +8.94658417e-02 -3.47024724e-02 +7.07578659e-02 -5.08936569e-02 +5.75320125e-02 +4.93320972e-02 -1.45128801e-01 +2.34111100e-02 -1.24520317e-01 +2.88196802e-02 -6.22578338e-02 +1.29185438e-01 +1.43501192e-01 -7.90530443e-03 -3.48733366e-03 +4.48419601e-02 +9.98839736e-04 +2.65458226e-03 -1.27291262e-01 -1.45872310e-01 -5.98687977e-02 +1.54787600e-02 -5.94973043e-02 -6.29660934e-02 -7.52752572e-02 +1.15047336e-01 +6.15310967e-02 -3.48392054e-02 +1.38605207e-01 +2.62686014e-02 +1.04892105e-01 -1.35973319e-01 -2.17267871e-03 +1.19010895e-01 +3.81591618e-02 +5.43670505e-02 -9.40412283e-04 +6.82707876e-02 -1.73914284e-02 +2.07273364e-02 -8.29014927e-02 -2.95957997e-02 +7.84936994e-02 -7.99541920e-02 +4.01288569e-02 -1.41840085e-01 -6.97736442e-03 -7.87239224e-02 +1.19645476e-01 +3.37262005e-02 +4.88628894e-02 +1.42867059e-01 -4.80959788e-02 -2.79406980e-02 +1.25087470e-01 +9.30956453e-02 +5.07731140e-02 -4.65136766e-02 -1.23389661e-01 +7.28522241e-03 -8.14697891e-02 +4.15423810e-02 -7.92510808e-03 -8.64480138e-02 +1.31909072e-01 -9.63742137e-02 +2.26543844e-02 -1.04526691e-01 +7.90800452e-02 -5.52157238e-02 -2.70754099e-04 +1.05054706e-01 -9.95584577e-02 -3.62403393e-02 -1.15415536e-01 +1.40374005e-01 +5.64682037e-02 +1.18856579e-02 -5.62248081e-02 +1.78563893e-02 +1.17693752e-01 +2.90290564e-02 -3.35511789e-02 -1.28024459e-01 +1.99281424e-02 +2.54175514e-02 +3.71199399e-02 -6.82682097e-02 -9.36911702e-02 +1.28806859e-01 +8.57318938e-02 -1.37176931e-01 -4.26422954e-02 -1.30455434e-01 +6.88772947e-02 +6.11471534e-02 +1.97651237e-02 -1.16383396e-01 +3.67395580e-02 -4.73528281e-02 +6.98352456e-02 -6.99540973e-03 +7.91269243e-02 -3.73431072e-02 -6.09938428e-02 -5.96966371e-02 -1.10123768e-01 +7.47181773e-02 +5.34702837e-03 +7.53512383e-02 +1.16960883e-01 +1.36420608e-01 -1.06787935e-01 -8.56933221e-02 +6.69232905e-02 +1.02329686e-01 -1.11209646e-01 +5.58903068e-02 -3.90773788e-02 -1.00773700e-01 -7.73177147e-02 +9.28842276e-02 -6.30974919e-02 +3.50185335e-02 +1.19800895e-01 -7.41198957e-02 -4.94725406e-02 +4.23545390e-02 -6.49097338e-02 +8.25331956e-02 -5.00183254e-02 +2.13875175e-02 +2.58676708e-03 +9.54329967e-04 +6.29415363e-02 +1.44820213e-02 -8.57835710e-02 -1.44770384e-01 +1.21219844e-01 +1.05149269e-01 -9.14444700e-02 -1.44595399e-01 -8.67949128e-02 +8.49300474e-02 -5.53791374e-02 +5.18786162e-02 +1.36804581e-01 +1.00340798e-01 +9.25705880e-02 -6.27367422e-02 -5.35121113e-02 -2.81558931e-03 -2.02138871e-02 +1.24002606e-01 -4.54026982e-02 -1.30990729e-01 +8.43046457e-02 +1.10420227e-01 -8.55163112e-02 +7.08501339e-02 -7.54908994e-02 +1.02826089e-01 -4.29275334e-02 +6.19773269e-02 +1.45656973e-01 -3.58874798e-02 -4.37576473e-02 +4.92872596e-02 -8.05773661e-02 +5.81778586e-02 -2.11896896e-02 +6.71126395e-02 +6.36100769e-03 +1.29551917e-01 -9.30082649e-02 -1.39148429e-01 -3.34986299e-02 -7.31698200e-02 +6.58608377e-02 -1.39190316e-01 +1.12330496e-01 +7.96624571e-02 +1.23658359e-01 -6.26677275e-02 -1.29301235e-01 -4.17122245e-03 +1.37076110e-01 -7.49979913e-02 +1.29525095e-01 -4.45142239e-02 -4.42683473e-02 -2.87032202e-02 -1.67994797e-02 -1.09557077e-01 -1.30706012e-01 -3.17196622e-02 +9.07463878e-02 +9.16593820e-02 -3.36918905e-02 +1.10804200e-01 +1.42538041e-01 +1.31025344e-01 -1.29444659e-01 +1.18210495e-01 -4.03975397e-02 -2.06481367e-02 -9.52853113e-02 +8.20497870e-02 -5.99729270e-02 +5.53580374e-02 -9.25073475e-02 +1.44205987e-01 +9.20148641e-02 +7.65319616e-02 -7.19808117e-02 -1.33811772e-01 -7.03084990e-02 -4.49427515e-02 +3.25612724e-03 +1.34009868e-01 -5.09514362e-02 +3.97315174e-02 -1.24068178e-01 -2.95599550e-02 +5.39549291e-02 -1.06429189e-01 -1.02824867e-02 -1.18874215e-01 +1.42049789e-01 +7.17015564e-02 +8.54060948e-02 +7.31123686e-02 -9.88156348e-02 +7.28701800e-02 +1.63960904e-02 +1.20105237e-01 +1.35065466e-01 -1.01910897e-01 -3.95456105e-02 -2.50775516e-02 +1.13724828e-01 -8.38888660e-02 -1.09835230e-01 +7.50765502e-02 -7.68599659e-02 -2.54419222e-02 -1.20669752e-02 -8.95422995e-02 -4.17852700e-02 +7.26697445e-02 -5.49884140e-03 +1.16239071e-01 -1.42097265e-01 +1.07554764e-01 -6.67670965e-02 +3.97898853e-02 +1.38163954e-01 -1.21378303e-01 +1.98692977e-02 -9.77008194e-02 -7.63636082e-02 -1.33516714e-01 +4.08941209e-02 +1.01881981e-01 +1.22618288e-01 +7.54247010e-02 +9.26259905e-02 +1.81341171e-03 -4.33789343e-02 +5.40656596e-02 -8.23295489e-02 -1.16152987e-01 -1.12951756e-01 -1.09796822e-01 +6.17903769e-02 -3.03469598e-03 +4.28309888e-02 -5.81142828e-02 +4.02033478e-02 -2.70172954e-02 -1.08096503e-01 +5.05483150e-03 +8.46277326e-02 +1.39654368e-01 -8.10582414e-02 +6.89133257e-02 +1.39641881e-01 +9.20306891e-02 +2.34385431e-02 -1.38655066e-01 -1.20332830e-01 +1.15889728e-01 +2.04201192e-02 -1.18378267e-01 -1.45144090e-01 -1.06432214e-01 +1.46014094e-01 -6.27168491e-02 -7.36979842e-02 +1.05394483e-01 -1.81898475e-03 -8.67747664e-02 -1.22652464e-01 +3.04014236e-02 -1.29616767e-01 +2.20889896e-02 +9.24027860e-02 -4.58694994e-03 -7.68902525e-02 +1.25844210e-01 -8.57595503e-02 -4.83703986e-02 +1.05890125e-01 -1.27141416e-01 +3.02654803e-02 +9.32630301e-02 +5.62434196e-02 -1.40635058e-01 +6.93936348e-02 -9.34112072e-03 -5.96641973e-02 +2.55432278e-02 -8.39908272e-02 -2.21304297e-02 +4.40711677e-02 -1.02653623e-01 +1.20520085e-01 +5.90402186e-02 -3.98045331e-02 +5.33576459e-02 -4.72707450e-02 -1.24562152e-01 +1.70287639e-02 +5.95673919e-04 +2.99002379e-02 +1.44285172e-01 -3.16508487e-02 +1.25375181e-01 -7.19034150e-02 +7.16428459e-03 +5.54061681e-02 +4.44394350e-02 +1.06988549e-01 +1.41187727e-01 -3.40809301e-02 -5.22553921e-04 +9.59064364e-02 -9.44106281e-03 +1.12178534e-01 +9.03594792e-02 -9.29920822e-02 +1.75178051e-03 +7.64795691e-02 +7.42071867e-02 -2.89312974e-02 +1.02446198e-01 +5.36403060e-02 +3.02334130e-02 -1.20253980e-01 -6.03720546e-03 -6.18128031e-02 +2.28133798e-02 +1.41732603e-01 +5.21738678e-02 +3.19871306e-03 +8.48397613e-03 -1.40378311e-01 -1.39422283e-01 +8.55443031e-02 +1.32710397e-01 +9.53655839e-02 +1.43058836e-01 -1.18641973e-01 -6.39167130e-02 +2.90216506e-03 -1.93592310e-02 +1.23014390e-01 +6.23054802e-02 +4.04540896e-02 +7.24454224e-03 +7.03847259e-02 +3.50804925e-02 -6.59427047e-03 +1.20513260e-01 +8.85026753e-02 -9.28736925e-02 +7.17140138e-02 -1.31032020e-02 +7.77307451e-02 +1.08478606e-01 +1.37836397e-01 -3.27097550e-02 +1.44698918e-01 -3.01018581e-02 +7.24536926e-02 +2.94969380e-02 -4.73480374e-02 -3.63291651e-02 -1.35545105e-01 +1.35912538e-01 +6.52928650e-03 -1.16875276e-01 -6.69497326e-02 +1.10849231e-01 +7.63066560e-02 +9.85646397e-02 +3.48426700e-02 -4.35210243e-02 +2.28444040e-02 +4.39599454e-02 -1.03684925e-01 +3.43920290e-03 +4.97895628e-02 +1.02472305e-02 -1.17349535e-01 +2.36759931e-02 -1.28284484e-01 -7.38535896e-02 +7.11583942e-02 +4.77710366e-03 +4.52131629e-02 +3.98720950e-02 +6.03519082e-02 +1.39406025e-01 +8.97279382e-03 +7.44064599e-02 +8.68071914e-02 +9.63053405e-02 +1.37823582e-01 -7.06914961e-02 +5.13109565e-03 -6.00064173e-02 -8.72563198e-02 +4.50388938e-02 -1.05097085e-01 +1.35901660e-01 +1.13854378e-01 +1.10536516e-01 +1.45319194e-01 +1.26339555e-01 +6.56446069e-02 +5.72543740e-02 +1.29521787e-01 -5.95912337e-03 +3.49442363e-02 -1.43774346e-01 +3.84039134e-02 +5.10132015e-02 -1.34939924e-01 +8.86469036e-02 -5.45587242e-02 -6.60454929e-02 +1.06856108e-01 -1.46276861e-01 +1.03482321e-01 -9.03612375e-02 -1.42189726e-01 -5.48611283e-02 -1.03107244e-02 +6.90419376e-02 +2.96672136e-02 +1.17430389e-01 +1.23541206e-01 -9.19292867e-03 +9.56072956e-02 -9.18285698e-02 +1.09212011e-01 -1.57219768e-02 +1.19789183e-01 -5.13677150e-02 -3.26156765e-02 -6.56885430e-02 -6.71979785e-03 -2.12591439e-02 -2.42074877e-02 +2.17133611e-02 -5.85943460e-02 +6.10461682e-02 +2.59571522e-02 -2.14142799e-02 -9.68998522e-02 -3.62445861e-02 +1.02536842e-01 -4.87135425e-02 +2.21280009e-02 +3.15079391e-02 -6.30042553e-02 +1.01556987e-01 -1.21446669e-01 -1.24051109e-01 +7.55852461e-02 +8.87296200e-02 +1.40867382e-01 -4.31477576e-02 -5.56745455e-02 +6.44635260e-02 +1.06312633e-01 -6.62644729e-02 +8.99038762e-02 +3.03338021e-02 +6.10988736e-02 +5.44019789e-02 -8.81067365e-02 +9.35133994e-02 +1.38884544e-01 -3.64094898e-02 -1.01757884e-01 -6.07916266e-02 -1.45787448e-01 -6.61532283e-02 +3.22698355e-02 -7.67569616e-02 +7.23948926e-02 -6.42039478e-02 +7.92386979e-02 -1.01145014e-01 +1.03848934e-01 -1.01839975e-01 +1.11714691e-01 -1.32578596e-01 -1.27223939e-01 +5.19422293e-02 -1.12211406e-02 -1.11172862e-01 +8.18233788e-02 -1.19095989e-01 -1.23608410e-02 +3.14703286e-02 +3.99146527e-02 -9.11678821e-02 +1.10061318e-01 -1.31103799e-01 -3.25386897e-02 -2.31983215e-02 -1.17419541e-01 -1.32411048e-01 -7.33057112e-02 +1.18104279e-01 -6.49620593e-03 -2.74157301e-02 -6.05948493e-02 -2.47903094e-02 +9.08728391e-02 -8.94849449e-02 +7.96843320e-02 +1.81365013e-02 -7.28785470e-02 -7.66999274e-02 -3.29379439e-02 -4.10064086e-02 -1.42098501e-01 +5.76826781e-02 -1.33050337e-01 -8.64771083e-02 -1.22749284e-01 +3.51129472e-03 +6.14831299e-02 +1.14011407e-01 +1.15520418e-01 +1.40070915e-02 -8.22280347e-02 +5.01235276e-02 -1.39486536e-01 -1.53574795e-02 -6.17390797e-02 -6.18145391e-02 +9.28756446e-02 +1.21900439e-01 -4.12114784e-02 +8.94746631e-02 -1.46278203e-01 +1.02089152e-01 -1.13331176e-01 +2.41527855e-02 -7.79327154e-02 -5.39771691e-02 +1.34389549e-01 +1.12666905e-01 -7.10647553e-02 +7.31228441e-02 -1.21678904e-01 +1.33892298e-02 -3.06289941e-02 -4.34966162e-02 -3.93862203e-02 -2.26952210e-02 +8.52757692e-03 +6.26780689e-02 +4.52726930e-02 +7.84933567e-04 +1.73166096e-02 +2.33455151e-02 +3.27745974e-02 +6.97019696e-03 -1.15245491e-01 -5.41974381e-02 +6.08739257e-03 +6.26695752e-02 +5.30985743e-02 +9.65173542e-03 +1.27201945e-01 +5.89927882e-02 -5.94381094e-02 -1.66442990e-03 -1.79620534e-02 -1.21271521e-01 +6.49199784e-02 -6.46570548e-02 -1.46120518e-01 -1.08275279e-01 +9.52035487e-02 +6.90466762e-02 +4.18468118e-02 -1.42365351e-01 -1.17783628e-01 +8.31213892e-02 +8.91755372e-02 +9.73234177e-02 -9.75138247e-02 -1.45115748e-01 -8.02538693e-02 +2.28100270e-02 +4.79938090e-02 -7.77717605e-02 -5.05007431e-02 +1.42036557e-01 -4.95372117e-02 -1.10611320e-02 +4.48703319e-02 +1.31073564e-01 -1.01222113e-01 +4.25421447e-02 -5.64504489e-02 +1.32515430e-02 -8.64844546e-02 -6.92244023e-02 -5.67328930e-03 -1.39324740e-01 +1.25399768e-01 -2.80568823e-02 +1.17180288e-01 -8.27662870e-02 -9.38616171e-02 -3.24158818e-02 +1.37356550e-01 -1.38291016e-01 -1.26823932e-01 +3.74059230e-02 +1.37831122e-02 +1.07455701e-01 +5.15538007e-02 -2.83209607e-02 -1.42153606e-01 -9.84600186e-03 +1.08176470e-02 -1.33394510e-01 +9.96328294e-02 -7.53657147e-02 +2.74844617e-02 +1.19758278e-01 -1.44706890e-01 +1.17006212e-01 +6.39545023e-02 +1.18411869e-01 +9.84994322e-02 -1.27691448e-01 +1.10094070e-01 -4.92927879e-02 +6.75831139e-02 -1.31840989e-01 -3.72764394e-02 -8.07993039e-02 -1.04401425e-01 +4.24167067e-02 +2.13290155e-02 +1.00560993e-01 +5.04162461e-02 -1.03246637e-01 -5.93273342e-03 +5.45049161e-02 -3.34241241e-02 +9.10837054e-02 +1.29008085e-01 +1.88969970e-02 +6.71856105e-03 -1.20072015e-01 -1.31976157e-02 -6.56861514e-02 -8.90859514e-02 +1.06896222e-01 +5.02696484e-02 -9.45329666e-05 -2.64614820e-03 +4.60323393e-02 -8.22053403e-02 -7.75010437e-02 +1.20403379e-01 -6.34697825e-02 -1.19563445e-01 +1.13279074e-01 +1.42017722e-01 -1.27831310e-01 -9.64268446e-02 -4.53571230e-02 +9.11729038e-03 -8.95575881e-02 -1.40046924e-02 -4.72593457e-02 -8.95831585e-02 +3.03693414e-02 -3.94674167e-02 -2.67257020e-02 +3.65836322e-02 -3.78511176e-02 +1.00401923e-01 -1.51143819e-02 -9.58915949e-02 +8.57780427e-02 -5.26643097e-02 -6.78473189e-02 +5.23027033e-02 +4.64317948e-02 +5.89744747e-03 -1.37636498e-01 +1.37232810e-01 -1.02691062e-01 +1.44412398e-01 -7.33983293e-02 +1.44308716e-01 +1.31251723e-01 +1.32221550e-01 -6.09944165e-02 -1.03567690e-02 +9.43571180e-02 +9.88840908e-02 +1.11673415e-01 -9.82290208e-02 +4.60791737e-02 +7.85400420e-02 -8.24566633e-02 -9.31546092e-02 +9.90153849e-03 -7.05161914e-02 +6.73064142e-02 -4.32167798e-02 +4.46399152e-02 -1.35458052e-01 -1.19027615e-01 +1.06584758e-01 +5.21162301e-02 -1.14555746e-01 -3.75600159e-03 +1.30331427e-01 -1.86917633e-02 +1.55898929e-02 +9.05304998e-02 +9.84977782e-02 +1.45056099e-01 +1.38212442e-01 +7.60263503e-02 +3.49675715e-02 -1.56328082e-04 -6.81736022e-02 +7.92228132e-02 +9.54662412e-02 +8.20693970e-02 +6.88613206e-02 -4.80096340e-02 +7.55608976e-02 -6.90870807e-02 -3.58921662e-02 +3.87400538e-02 +2.36384720e-02 +4.01533693e-02 +1.33551806e-02 -1.00453667e-01 -4.48438898e-02 +5.61070442e-02 -5.87825775e-02 -9.00696218e-03 +4.08275872e-02 -1.25583529e-01 -1.11856237e-01 -1.07980832e-01 -1.93346888e-02 -9.28476378e-02 -7.06701279e-02 +1.01400167e-02 +6.72807842e-02 +6.33282512e-02 +6.91094100e-02 -1.37396544e-01 +1.35220081e-01 +1.06063992e-01 +1.45302802e-01 -1.25747651e-01 +1.11968786e-01 -5.56989685e-02 +1.45698726e-01 +9.25937295e-02 +5.68361431e-02 -2.59260833e-03 -2.63046473e-02 +3.05413008e-02 +1.10048026e-01 +1.01374418e-01 -7.03556314e-02 +1.21883899e-02 -6.77029118e-02 +2.17933953e-02 +7.00964630e-02 +1.02278247e-01 -1.35355979e-01 +1.06630474e-02 -5.43150306e-02 +4.40958440e-02 -1.19637109e-01 -8.94939527e-02 +2.81809270e-03 -4.01529372e-02 -5.89132309e-03 +1.21235043e-01 -5.29849157e-02 -3.08963954e-02 +1.10223532e-01 +2.86774188e-02 -5.18010929e-02 -1.37463853e-01 +9.02941972e-02 -1.25073403e-01 +1.34834200e-02 -8.56483355e-02 +1.33401066e-01 +4.05945927e-02 -1.07382290e-01 +1.53645873e-03 -7.98399970e-02 -4.13971990e-02 -1.28729671e-01 +1.09349012e-01 +5.99735975e-03 +1.19852662e-01 +1.15148783e-01 +1.30696476e-01 +1.19664192e-01 -4.68150973e-02 +6.91635609e-02 +6.28289431e-02 +1.27060324e-01 +1.26092732e-01 -1.14173219e-01 +5.18833101e-02 +3.12107056e-02 +1.06029540e-01 +5.88991493e-02 +1.23218060e-01 +9.52814519e-02 -7.83965439e-02 +1.68437213e-02 -1.85921043e-02 +1.28082424e-01 -4.85426784e-02 +1.29044801e-01 -1.45852789e-01 +3.83444279e-02 +2.45475471e-02 -1.28011584e-01 -8.57290253e-02 -9.11782756e-02 -5.90153486e-02 -9.08818915e-02 +1.08387142e-01 -1.19761407e-01 -1.29941508e-01 -2.42325291e-02 +5.74398041e-02 +8.39035213e-03 +4.61846292e-02 +1.31859750e-01 -1.01632334e-01 -8.20929557e-02 -1.07202016e-01 -8.50132555e-02 +1.97130740e-02 +4.48399633e-02 +1.17616355e-03 -4.59574759e-02 +1.30608469e-01 -1.05821133e-01 +7.90052116e-03 -8.07571486e-02 +1.18382126e-01 +1.31452441e-01 +4.44016904e-02 -9.55147892e-02 +5.70441484e-02 +3.14055830e-02 -7.24850670e-02 -8.02411437e-02 -8.51505399e-02 -1.44833043e-01 +9.61602777e-02 +3.63729447e-02 +1.21843368e-01 -9.72662270e-02 +1.39786780e-01 -1.53360665e-02 -8.23228955e-02 +7.90392756e-02 +1.14556134e-01 +1.43499106e-01 +1.46243691e-01 -2.46731788e-02 -1.32538542e-01 -9.15346965e-02 -1.43521130e-01 +3.16537470e-02 -9.97254029e-02 +2.31236815e-02 +4.66797501e-02 -9.81429666e-02 -1.37312055e-01 -1.11351475e-01 -1.41313151e-01 -1.09935567e-01 -8.54261816e-02 -5.74003533e-02 -5.97267449e-02 +9.78050977e-02 -1.12666339e-02 +4.04604822e-02 -1.40391290e-03 +7.99310505e-02 -9.55920815e-02 -1.45791695e-01 -3.11570093e-02 +4.34226841e-02 +6.30427003e-02 +1.21317059e-01 +1.55483931e-02 -8.35254118e-02 +9.91381705e-03 -1.06302381e-01 -5.61993420e-02 +1.00000098e-01 +1.45208895e-01 -1.29591137e-01 +2.02950239e-02 +9.39825475e-02 +9.88408178e-02 +1.37803912e-01 +8.15899223e-02 -1.13429114e-01 +4.94539738e-04 +5.99522889e-03 -1.02751285e-01 -8.99704546e-02 +1.22509569e-01 -8.87745321e-02 -2.60601938e-02 +1.79325342e-02 -1.20523341e-01 -8.09472129e-02 -1.17445208e-01 +4.55768108e-02 +1.53941661e-02 +2.37471908e-02 +1.95588171e-02 -4.83422354e-02 -7.95241520e-02 -1.85866207e-02 +8.13752413e-04 +6.88304752e-02 +1.44057214e-01 -4.21003252e-02 +1.76050067e-02 +1.20047092e-01 +9.20106769e-02 +9.00767744e-02 +7.54269511e-02 +1.45421147e-01 +8.55279565e-02 -1.22069202e-01 -1.10969126e-01 +4.25040275e-02 +2.64482796e-02 +1.13135159e-01 -7.34598264e-02 -1.40642598e-01 +1.03023008e-01 +6.01699799e-02 +6.33357167e-02 -2.58368626e-02 -9.29120183e-03 -1.79553032e-02 -5.10938913e-02 -1.18682690e-01 -4.66399044e-02 +4.39054072e-02 +1.30698085e-04 +1.14337355e-02 +2.83598304e-02 +9.24138725e-02 +9.08358395e-03 -2.02100575e-02 -3.22459638e-02 +1.20858461e-01 -5.04818857e-02 -3.76541913e-03 +1.05547339e-01 +4.86182272e-02 +4.41905558e-02 -1.00397855e-01 +1.07663512e-01 -1.25784516e-01 +1.33861303e-01 -1.44320905e-01 +6.01200908e-02 +1.11502141e-01 -1.01061270e-01 -1.17522031e-02 -5.94548881e-03 -1.28573641e-01 -1.09699309e-01 +9.08292830e-03 +2.91978419e-02 +7.56792724e-03 -4.67880666e-02 -1.44366518e-01 +1.31988704e-01 -4.55434099e-02 +6.09137565e-02 -1.15577094e-01 -1.08169466e-01 +1.11737698e-02 -1.23010159e-01 +1.32790864e-01 +1.32934719e-01 -1.35225460e-01 -2.51469761e-02 -4.98353541e-02 -1.22520939e-01 -3.04767117e-02 +1.40005499e-01 +7.79142976e-03 +1.27414256e-01 +1.19429469e-01 +1.46179348e-01 -6.42567202e-02 +5.48519343e-02 -2.04830170e-02 +8.22366476e-02 -8.83116275e-02 -3.86255831e-02 -9.01205093e-02 -9.74833220e-02 -3.36676836e-04 +9.22258347e-02 -7.74134174e-02 -9.05220956e-02 +9.93339717e-03 +2.93734223e-02 -1.01307340e-01 -1.33009672e-01 +6.77188337e-02 +8.74178857e-02 -1.10495262e-01 -1.21398039e-01 +2.99230367e-02 +1.41511410e-01 -1.11223139e-01 -1.15249217e-01 -6.57983124e-03 -9.58669335e-02 +1.08123600e-01 +6.40351176e-02 -6.37308806e-02 +1.08196139e-02 +6.27975911e-02 +1.54723525e-02 +6.62572086e-02 -2.55695805e-02 +7.73946345e-02 +8.05662572e-03 -2.49252841e-02 -8.76332819e-03 +1.31198138e-01 -4.73880768e-02 +7.72375464e-02 +1.18819416e-01 -1.45805433e-01 +4.03642952e-02 -8.03339183e-02 +1.39054030e-01 -7.13997409e-02 +1.39462650e-01 +5.16765267e-02 +6.73704445e-02 +1.80631876e-02 -1.58105493e-02 +5.64517528e-02 +2.04665959e-02 +9.58074778e-02 -5.17462865e-02 -1.00264668e-01 +1.27835214e-01 +3.02304029e-02 -1.42637476e-01 -1.09170876e-01 +2.88640261e-02 -1.87730640e-02 -5.79046234e-02 +3.43845487e-02 -4.36965078e-02 +1.09407037e-01 +4.73521650e-03 +7.95507431e-02 +5.11122346e-02 -1.32824913e-01 +1.34128332e-03 -5.83187714e-02 +7.20342100e-02 +5.22841662e-02 +1.52018815e-02 +1.20590270e-01 +1.24269664e-01 -1.44576311e-01 -3.95080820e-02 +7.62939751e-02 +8.14655125e-02 +8.09386373e-04 +9.35305506e-02 +1.20882779e-01 -2.47538015e-02 +1.44144714e-01 -3.55574489e-03 -2.97817290e-02 +1.38829529e-01 +4.76619154e-02 -1.94762647e-03 -5.36143705e-02 +1.39098078e-01 +1.34207308e-01 +4.54701036e-02 +2.03060210e-02 -8.68758485e-02 -5.86428717e-02 +1.14426464e-01 +1.23868883e-01 -4.41954136e-02 +5.31811714e-02 -6.06261790e-02 +1.07755542e-01 +4.79547530e-02 -1.01189539e-01 -1.56698078e-02 +3.28347385e-02 -8.46934766e-02 +9.42079276e-02 +4.23363894e-02 -5.21747395e-02 -1.11853376e-01 -1.36316970e-01 -7.76101276e-02 +2.48899609e-02 +1.37049049e-01 -1.17669076e-01 +1.22031778e-01 -7.94306621e-02 +2.56106406e-02 +1.19370580e-01 +1.14096165e-01 -1.25063583e-01 +1.54123157e-02 -8.55358019e-02 -1.37746930e-01 +7.29887187e-03 -7.59074017e-02 -2.60235816e-02 -5.81785887e-02 +8.51398706e-03 +1.32829905e-01 -2.08133757e-02 -1.02841705e-02 -8.44582915e-02 +8.86074752e-02 +7.02964365e-02 -9.80670154e-02 +7.11460710e-02 +4.72436696e-02 +3.93616557e-02 +3.23372632e-02 -1.31437510e-01 +3.46264690e-02 +4.25402820e-02 +2.33215094e-03 -1.05916455e-01 +3.46705317e-02 +8.74493122e-02 -9.77537930e-02 +1.01873845e-01 +1.28064245e-01 -1.14080474e-01 +1.21734321e-01 +2.81928331e-02 +8.31770748e-02 -3.44799235e-02 -2.35659629e-02 +5.14152944e-02 -9.59636793e-02 -1.20667621e-01 +1.45942688e-01 +7.47519433e-02 +1.29445404e-01 +1.32138699e-01 -1.11981384e-01 -4.82739508e-03 +1.04794115e-01 -4.78194132e-02 +5.96842915e-02 -4.56384867e-02 +1.01919293e-01 +6.61345720e-02 -1.28939107e-01 -1.44615620e-01 -1.05276138e-01 -6.73218593e-02 -5.61763421e-02 +1.04071200e-02 -4.24058065e-02 -3.98978740e-02 +7.86468536e-02 -8.14235285e-02 -1.36439383e-01 +8.07012618e-03 +1.03186056e-01 +6.78005219e-02 -1.24028340e-01 +7.92932063e-02 +6.56523407e-02 -1.27911210e-01 +4.38752621e-02 +2.84029394e-02 -1.01113290e-01 +8.56019258e-02 +7.81719387e-03 +2.96480805e-02 -2.29624435e-02 +8.85664821e-02 -1.21918529e-01 -1.16260052e-02 +8.68568122e-02 +3.02274674e-02 -6.36722147e-03 +5.78836799e-02 -1.56839043e-02 +1.04459763e-01 +2.78781354e-02 -9.01660323e-03 -7.67783299e-02 -1.35017753e-01 -1.46180600e-01 -3.39842513e-02 -3.43901962e-02 -1.40561700e-01 +3.28846127e-02 +1.13013923e-01 -1.16405234e-01 -5.31785116e-02 -7.31961653e-02 +2.52858400e-02 +9.74054635e-02 -1.98845863e-02 +1.21078283e-01 +7.72685111e-02 -4.03955579e-04 -2.92492732e-02 +7.74339586e-02 -9.34584439e-02 +8.17584842e-02 -1.31857887e-01 +1.07822746e-01 +9.74652916e-02 +2.24325061e-03 -4.16279510e-02 -1.24698937e-01 +1.92938298e-02 -1.39481947e-01 +6.11380339e-02 +9.63945091e-02 +1.35529369e-01 +6.86722249e-02 -9.14758444e-03 +9.73400623e-02 -1.23734146e-01 -9.91939008e-03 -5.35201281e-02 -8.72235596e-02 -1.29760638e-01 -6.71586990e-02 +9.54467356e-02 +7.33128339e-02 -7.39950761e-02 -1.13734953e-01 -1.11442447e-01 -4.88357991e-02 -7.71034062e-02 -1.24523304e-01 +6.51374459e-03 -2.52877250e-02 -1.20076463e-01 -2.80214846e-03 -8.19580927e-02 +2.71607637e-02 +7.12837428e-02 +1.78644061e-02 +8.24741274e-02 -1.08978286e-01 +7.59996176e-02 -1.10275999e-01 -1.51819736e-02 -3.77124175e-02 -1.37173861e-01 +9.97330993e-02 -7.69224912e-02 +1.33170873e-01 -8.40364397e-03 +4.60642874e-02 -3.05457711e-02 -4.25373688e-02 -7.00859502e-02 -5.33273667e-02 -8.63633752e-02 +6.35013133e-02 +1.20847791e-01 -4.77486029e-02 -1.24777660e-01 +5.86970747e-02 +4.80970144e-02 -6.26803711e-02 -5.62040433e-02 +9.86464024e-02 +6.24668002e-02 +3.99153531e-02 +1.22775763e-01 +9.85413790e-02 +1.29669547e-01 +8.57196599e-02 +1.57008767e-02 +7.05759376e-02 -1.42194465e-01 -4.24110517e-02 +1.18609518e-02 -1.28422827e-01 +1.49370581e-02 +1.26807153e-01 +1.31969333e-01 +4.89847660e-02 +1.41533285e-01 +1.03955954e-01 -1.19753659e-01 +1.19548827e-01 -2.71006972e-02 +6.50621355e-02 -1.43660098e-01 -8.02132487e-03 +9.92700756e-02 -5.12915477e-02 -1.76770240e-02 -2.29264498e-02 -1.35383025e-01 -1.10423326e-01 +6.92416579e-02 +8.86812508e-02 -8.66551995e-02 -6.06555790e-02 +1.03134006e-01 +9.96651202e-02 +1.28088087e-01 +1.07484818e-01 +1.32559448e-01 +6.68120980e-02 -7.47326910e-02 +7.19843358e-02 -3.24866548e-02 -1.85188651e-03 -1.35859102e-02 +1.73553079e-02 +1.44722730e-01 -7.31812790e-02 -1.33779600e-01 -6.86541200e-03 -1.20948263e-01 -9.80675966e-02 -1.15645379e-01 +9.70247686e-02 -3.04034874e-02 +6.21346980e-02 -9.07091945e-02 -1.63006634e-02 -1.38131052e-01 +1.91546977e-02 -1.33576304e-01 -1.08554766e-01 -1.25089079e-01 +5.95363379e-02 +1.36797190e-01 -4.27485332e-02 +4.55450863e-02 +1.34782493e-01 +9.90891606e-02 +3.90107334e-02 +3.48068476e-02 +1.27991736e-01 +1.07066423e-01 +7.83704966e-02 -9.40495431e-02 +2.58409977e-03 -1.36327416e-01 +3.35198939e-02 +1.22814596e-01 +1.00700349e-01 +5.63635230e-02 +1.25585616e-01 -6.90920800e-02 -9.14180651e-02 +1.30579412e-01 +1.09980673e-01 -7.53769428e-02 +1.31912678e-01 +5.69329113e-02 -1.04621872e-01 +1.06353909e-01 +5.96132576e-02 +4.02275920e-02 +6.28725141e-02 +6.54677153e-02 +1.07570171e-01 +2.56644934e-02 +1.02983177e-01 +1.72759593e-03 +1.45338029e-01 -1.93147659e-02 +6.51497990e-02 -6.73067123e-02 -1.21147014e-01 -1.37109533e-01 -5.25128841e-02 +2.32219696e-03 -1.38950422e-01 -8.01030099e-02 +1.44889414e-01 -8.25383365e-02 +1.03676081e-01 +7.10266083e-02 +4.61223871e-02 +9.24296379e-02 -5.83934337e-02 -1.15102269e-01 +6.30709082e-02 -1.27566397e-01 -8.56308863e-02 -2.03415751e-03 -3.23455334e-02 +1.44123167e-01 -2.28548348e-02 -3.18502858e-02 +5.01150638e-02 -5.86240366e-02 +1.27694100e-01 -1.28177539e-01 +3.91934365e-02 -9.03170630e-02 +1.29295707e-01 +1.14381671e-01 +1.75493509e-02 -1.78155303e-03 +1.21509343e-01 +1.03058517e-01 +2.91482359e-02 +9.38687772e-02 -1.43933594e-02 -5.71812019e-02 +6.92262650e-02 -1.22259900e-01 -3.16051245e-02 +4.39655781e-03 -5.19280285e-02 -9.36265066e-02 -9.61487889e-02 -9.98890400e-03 -4.14970964e-02 -3.59532759e-02 +1.24889761e-01 +9.11936313e-02 -1.35854244e-01 +5.44181913e-02 +6.35244250e-02 +8.48295391e-02 -6.49228618e-02 -5.11889681e-02 -1.18480176e-01 +2.31947005e-02 -1.23339906e-01 +9.47002023e-02 +2.04298347e-02 +1.35055423e-01 -1.05861738e-01 +1.35563403e-01 -9.46062580e-02 +3.14963162e-02 -1.24025978e-01 +1.33165449e-01 -1.07799768e-02 -4.48246598e-02 +1.09790593e-01 +5.56997210e-02 +6.54528886e-02 -1.03460044e-01 +6.20524138e-02 +1.00758642e-01 -7.89453536e-02 -1.09479509e-01 +9.37962383e-02 +1.89574063e-02 +8.71276855e-03 -8.16238746e-02 +1.03851795e-01 +1.85723603e-02 +5.90700954e-02 -1.18520558e-02 -5.66911027e-02 +1.84385628e-02 +1.41576022e-01 -9.82895344e-02 -8.49177390e-02 +4.46309596e-02 -1.37277365e-01 +3.49777937e-03 +6.24808371e-02 +1.22108668e-01 +7.90799409e-02 +1.42695546e-01 +5.72828948e-03 +8.49722922e-02 +5.78515232e-03 +5.77700883e-02 +6.73586577e-02 +1.49269998e-02 -8.26103091e-02 +8.63926262e-02 +5.91261387e-02 -1.33098513e-02 +7.43348897e-03 +1.24748945e-01 +8.72101933e-02 +1.02937892e-01 +4.03437018e-02 -4.88410890e-03 +1.02112144e-02 -9.10847336e-02 +1.43935412e-01 +2.08088607e-02 -1.32413387e-01 +1.46151572e-01 -5.06407246e-02 -1.35285705e-01 -9.75785851e-02 -3.03929150e-02 +1.29738271e-01 +9.86006856e-02 -9.64356586e-02 +4.17282730e-02 +6.31194711e-02 +2.62886137e-02 -1.19833156e-01 -2.10512429e-02 -8.36760998e-02 +1.02583170e-02 +9.45824683e-02 +9.97138917e-02 -1.18359879e-01 -8.87368470e-02 +7.73509294e-02 -4.99379262e-02 +4.77259159e-02 -7.97075555e-02 -1.31791085e-01 +6.23012036e-02 +4.28137928e-02 -1.40093312e-01 +1.17824286e-01 -4.73269671e-02 +1.30136460e-01 +1.13405466e-01 -9.20608416e-02 -3.07022855e-02 +1.32295966e-01 +1.76864862e-02 -4.54905927e-02 -2.80983746e-03 +4.56690937e-02 -1.19037449e-01 -1.12966970e-01 -2.45713368e-02 +6.61899000e-02 -7.20370337e-02 -1.04525819e-01 -6.30092323e-02 +6.11148179e-02 -3.38148624e-02 +2.02714950e-02 -8.38726535e-02 +1.33150846e-01 +8.38497579e-02 +1.31469131e-01 +7.03449547e-02 +1.41347408e-01 +1.39308989e-01 -1.22085907e-01 +1.05460137e-01 -1.03932291e-01 +1.31814986e-01 +1.37848169e-01 -1.19213462e-01 +5.60687333e-02 +7.37548321e-02 -7.59572983e-02 -5.59151173e-03 +4.51702178e-02 +3.33075523e-02 -1.49853975e-02 +8.05763453e-02 +6.45627975e-02 +9.21369493e-02 +1.22650295e-01 -1.12797737e-01 +7.82197714e-03 -8.49760473e-02 -7.61673898e-02 -1.34507716e-01 +5.22693396e-02 -2.82441601e-02 -7.12977350e-02 -1.31264329e-01 -4.60734963e-03 +8.47468376e-02 -7.60187879e-02 -1.04527839e-01 +1.25387907e-01 -1.12679914e-01 -6.12259805e-02 -5.17461449e-02 +1.12900496e-01 +1.28151178e-01 -1.39542058e-01 -1.17735893e-01 -5.34396693e-02 +5.99343181e-02 +1.33235246e-01 +6.28468990e-02 +8.39792788e-02 -1.32017195e-01 -8.50021839e-04 -1.16667323e-01 +4.91234213e-02 -1.03470802e-01 -8.79951715e-02 -4.41253558e-02 +5.90319037e-02 -7.81799629e-02 -4.53947708e-02 +2.25140750e-02 +1.01957023e-02 +5.53228706e-02 -1.28999397e-01 -1.07938647e-02 -8.90745670e-02 +1.40011698e-01 +1.20344549e-01 +2.54369080e-02 -9.11553279e-02 -1.42239884e-01 +9.42112058e-02 +9.97621715e-02 -1.01734698e-02 +1.36545628e-01 -1.30022094e-01 +1.09503806e-01 +1.35750085e-01 +2.99192220e-02 +7.23261982e-02 -5.74835315e-02 -4.02132124e-02 -5.66784963e-02 -1.00324422e-01 +1.35820568e-01 -1.26410097e-01 -1.30809307e-01 +4.85153347e-02 -1.01694956e-01 +9.75030959e-02 -1.19061470e-01 +9.04883444e-02 -1.33868873e-01 -7.85636380e-02 +1.42133206e-01 -6.03387728e-02 -6.80236593e-02 -1.20577671e-01 -8.08279365e-02 -9.76744816e-02 +2.59416848e-02 -2.29680687e-02 -2.52716765e-02 +5.78822196e-03 -8.38138908e-02 -2.81555727e-02 -4.42122966e-02 -8.84211212e-02 +8.74583870e-02 -1.25452638e-01 -1.24911100e-01 +1.40859127e-01 -8.73683989e-02 -9.87570062e-02 -4.18540612e-02 -4.32741791e-02 -1.20548785e-01 +5.18088937e-02 +9.54079479e-02 +1.19556814e-01 +1.03985995e-01 +7.65362382e-03 -1.46174923e-01 +5.40609062e-02 +1.41431093e-01 +1.07114017e-01 -9.54660773e-02 -7.58519024e-02 +5.41077703e-02 -9.24359411e-02 +3.38847041e-02 -6.54440224e-02 +1.29430145e-02 +1.45958036e-01 +8.67141187e-02 +1.24887526e-01 +1.10444218e-01 -7.26846829e-02 -3.12800482e-02 +7.14441240e-02 -2.72273719e-02 +5.91710210e-04 +1.17930114e-01 -6.93966821e-02 +6.59242868e-02 -2.20576152e-02 +2.14618593e-02 -2.96875760e-02 +5.83284348e-02 +2.07480490e-02 +1.32882833e-01 +1.17957443e-01 +9.13616419e-02 +2.39856988e-02 +1.73818916e-02 +5.79321384e-02 +2.24121213e-02 -1.33394957e-01 -3.79272774e-02 -5.86903617e-02 +1.16280079e-01 +8.69941115e-02 -1.29425079e-01 -2.29010507e-02 -6.37903810e-04 +2.43992656e-02 +5.61261326e-02 +5.79492897e-02 -9.37289819e-02 -4.98948991e-03 +1.33357823e-01 +1.37122899e-01 -1.21893838e-01 +1.10808998e-01 +7.13618994e-02 +9.21308994e-03 -9.33387280e-02 -9.85293835e-02 -2.21921504e-02 +7.05202073e-02 -4.11270559e-02 +5.19203395e-02 +5.37746996e-02 -7.00294971e-02 -8.85461420e-02 -1.07684284e-02 -9.97849926e-02 -6.15891665e-02 -1.38940841e-01 -2.92810351e-02 -8.68251026e-02 +8.69433582e-02 +7.78480023e-02 -2.28544921e-02 +6.93787634e-02 +1.22373819e-01 -8.58126432e-02 -1.09050706e-01 +1.07062191e-01 +1.68509036e-02 +4.90644574e-02 -9.69867408e-02 +1.40356332e-01 +7.05297142e-02 +1.00065783e-01 -1.20433718e-01 +1.39454186e-01 -6.95512816e-02 +7.36006200e-02 -5.22510186e-02 -8.79818499e-02 -6.65075034e-02 +1.79695189e-02 +5.12301177e-02 +3.04763466e-02 +8.21876079e-02 -9.21245962e-02 +1.38922215e-01 -6.25774711e-02 +2.69965827e-02 +9.00069326e-02 -7.37454966e-02 +1.77932084e-02 -1.74421668e-02 +6.87945038e-02 +1.39363348e-01 +1.20290935e-01 +4.43942994e-02 -1.34734318e-01 -1.36049464e-01 -6.70771524e-02 -5.97331300e-02 -1.10121816e-01 -1.30628049e-03 -4.23287898e-02 +8.02854300e-02 +1.39817238e-01 +8.37112516e-02 -2.75009125e-02 +7.58576393e-02 +8.21632445e-02 +1.20099962e-01 -1.34837329e-02 -4.00297716e-02 +4.03858721e-03 -9.72575173e-02 +6.94543868e-02 +1.23770088e-01 -1.45562440e-01 +2.07377821e-02 +3.04906666e-02 +3.86722088e-02 -2.68434286e-02 -1.21556498e-01 -9.56436023e-02 -1.10918052e-01 +1.59072578e-02 -1.76334828e-02 +1.43704444e-01 +9.64799523e-02 -9.19181779e-02 -1.28022894e-01 -1.88927799e-02 +6.55698329e-02 +4.29951996e-02 +3.53762358e-02 -8.17443430e-02 -7.57427439e-02 +1.38238877e-01 +5.12512773e-02 -1.32604212e-01 +1.37174100e-01 -1.36602148e-01 +1.23394191e-01 +1.43554628e-01 -1.12741187e-01 -1.40185952e-02 -1.07155561e-01 +6.94280863e-03 +7.10577816e-02 +2.36936361e-02 +4.05089557e-02 -7.52357990e-02 -3.69260758e-02 +1.28195643e-01 -4.69019786e-02 +5.54824024e-02 +2.66351700e-02 -1.08179152e-02 +4.35498208e-02 +4.90120053e-02 -6.60612360e-02 -1.01735272e-01 +4.45950776e-02 -6.44987449e-02 +2.67595500e-02 -6.79152533e-02 +4.31161970e-02 +1.33206785e-01 -1.19733796e-01 +1.34460121e-01 +6.51620626e-02 -3.69345844e-02 -9.75703001e-02 +9.94178504e-02 -1.15434058e-01 -7.83850104e-02 -3.77986580e-02 -1.15454197e-02 +7.66289234e-02 +7.94325769e-02 -9.02012438e-02 -1.36573434e-01 +1.30632728e-01 -2.60024592e-02 +9.46664363e-02 -1.08681157e-01 +1.78313255e-03 -8.16623420e-02 +7.80852437e-02 +6.50698245e-02 +1.25613213e-02 -1.33725062e-01 -7.79738203e-02 +9.04434770e-02 +1.63438916e-03 +8.71722251e-02 +6.91568851e-02 -2.75853276e-02 +2.43440568e-02 +6.47926331e-03 +8.93517882e-02 +7.71030635e-02 -5.99941611e-02 -5.71518838e-02 +2.48977989e-02 -7.77396262e-02 +9.78308767e-02 -1.33548424e-01 +4.58133519e-02 -8.19211006e-02 +1.08398378e-01 +4.14894521e-03 -1.43149659e-01 -2.63404548e-02 +2.26421654e-03 -4.59413230e-03 +8.02775472e-02 +1.27808928e-01 -4.70799655e-02 -1.12910084e-01 +1.41282201e-01 +6.14645481e-02 +9.43399966e-03 -2.19376683e-02 -5.53909242e-02 -4.99185175e-02 +7.41014481e-02 -9.42315459e-02 -1.07961662e-01 -5.81437349e-03 -1.03371330e-01 +4.39852476e-02 -1.61640793e-02 -9.33229923e-04 -6.65965006e-02 +1.38181627e-01 -1.16601005e-01 -5.82739934e-02 -1.04877792e-01 -1.08757988e-01 +1.03274494e-01 +8.64163041e-02 +6.15280867e-02 +1.01028636e-01 -1.05661169e-01 +1.38165027e-01 +1.12511158e-01 -1.15253463e-01 +1.29706860e-01 +1.08178407e-01 -5.34083694e-02 +6.08947724e-02 +9.41761732e-02 +8.34123790e-02 -1.10187925e-01 -1.38466507e-01 +1.99826360e-02 -7.91978836e-02 +4.30262238e-02 -5.55738807e-03 +4.01490331e-02 -1.17415123e-01 -4.08182964e-02 -7.44118020e-02 -8.11248273e-02 -1.24778166e-01 -1.40543908e-01 -2.02954561e-02 -1.05164081e-01 -1.30447119e-01 -5.68503514e-02 +7.98807889e-02 -1.08208835e-01 +9.59686339e-02 -1.09123521e-01 +1.32902145e-01 -6.48979321e-02 +1.41768068e-01 -1.65200233e-02 +1.15134358e-01 -6.88836575e-02 +7.88691342e-02 -5.13150096e-02 +1.18679166e-01 +2.61444896e-02 -1.07993692e-01 -8.39011371e-02 +1.78751349e-03 +1.36004716e-01 +9.52497274e-02 +6.21354133e-02 -7.36320913e-02 +5.67620546e-02 +8.82458687e-03 +1.36832833e-01 +1.26769930e-01 +7.05178082e-03 -7.89433122e-02 -5.69817498e-02 +8.35822523e-02 +2.90258229e-03 +1.36801600e-01 +8.37560296e-02 +1.31433874e-01 -3.14673558e-02 +1.27981722e-01 +6.79068416e-02 +1.39115512e-01 +7.90467858e-03 -4.68477607e-04 +1.52654052e-02 -4.60897163e-02 +4.19797003e-03 -4.41055745e-02 -3.39842290e-02 +1.30340815e-01 -5.81233054e-02 +3.87693346e-02 +6.53133839e-02 -4.59025204e-02 +7.33824372e-02 +4.48005944e-02 +3.76886874e-02 -3.30610126e-02 +2.11426616e-03 -5.29750660e-02 +1.44089818e-01 +1.33826762e-01 -3.46821994e-02 +5.61927259e-03 +5.64381480e-04 +8.50414634e-02 +9.31634009e-02 -4.81166095e-02 -4.02165130e-02 -3.94457802e-02 -1.36472374e-01 +1.08635306e-01 +2.61744559e-02 -6.80688545e-02 +1.27003908e-01 -1.06764652e-01 -1.45898253e-01 -6.49708584e-02 -1.14879042e-01 +9.04413164e-02 +1.06950194e-01 -1.14210077e-01 -1.12408400e-03 +1.69987977e-02 +1.09723628e-01 +4.01913971e-02 -7.27894083e-02 +1.41222090e-01 -1.18304461e-01 -7.69419298e-02 +8.87383670e-02 +6.67780340e-02 +4.00862545e-02 -2.41289511e-02 +7.02732056e-02 -1.15982331e-01 +4.38751578e-02 +1.80718452e-02 +8.77983272e-02 -1.16635710e-01 +1.01421341e-01 +1.21021539e-01 +1.45518243e-01 -9.46392566e-02 +8.30957741e-02 -1.09768786e-01 +1.02119178e-01 +6.28507584e-02 -2.73784995e-02 +1.39374495e-01 +1.06872827e-01 +4.71975654e-02 +1.44275010e-01 -2.08059549e-02 -7.34984279e-02 +4.31352854e-03 +1.26162380e-01 +1.43682420e-01 +1.12076581e-01 -7.92272761e-02 -1.18527874e-01 -1.50275975e-02 -2.59714723e-02 +4.38171923e-02 +1.14974082e-02 +9.93780643e-02 +1.39376044e-01 -6.75743744e-02 -8.84549320e-03 +3.47045660e-02 -8.53027031e-02 +1.31930828e-01 +1.24729216e-01 +1.45291418e-01 -8.58099088e-02 +1.09164596e-01 +1.38275117e-01 +4.07204032e-03 +8.16586763e-02 -1.12852260e-01 +4.85637039e-02 -3.33115608e-02 -2.73549557e-03 +1.45418674e-01 +6.56036884e-02 +9.13760960e-02 +1.32218659e-01 -2.70029381e-02 +1.67965889e-02 +1.35198414e-01 +1.21409267e-01 -6.58790991e-02 +3.61277610e-02 +6.46912456e-02 -1.35424435e-01 +1.18576586e-01 +1.42540336e-01 -1.29941121e-01 -2.29708701e-02 +1.37523532e-01 -1.07728042e-01 -2.65187025e-03 -1.05408423e-01 -9.36554596e-02 -1.12989098e-01 -9.59888622e-02 +5.53106070e-02 +1.42178386e-02 -2.88317651e-02 -7.76079968e-02 +2.28981823e-02 -3.69731635e-02 -1.21064223e-01 -1.05470166e-01 +1.22592598e-02 +4.94870991e-02 +4.76442277e-02 -1.42315015e-01 -8.49445164e-02 -1.23104259e-01 +6.93562478e-02 +1.00311056e-01 +3.07279974e-02 +6.36064261e-02 -5.65864295e-02 +2.44109184e-02 -6.24796748e-03 -1.10943884e-01 -8.04964527e-02 -8.97611827e-02 +1.40549898e-01 -5.38695604e-02 +9.67791826e-02 -7.70800114e-02 -3.18717808e-02 +8.69765282e-02 +6.94877952e-02 +1.09447032e-01 -1.32377267e-01 -1.20326906e-01 -1.20654725e-01 -8.74481723e-02 -2.77070701e-02 -3.96431237e-02 -7.04555959e-02 -1.11251153e-01 +2.38601416e-02 +4.17479873e-03 -8.58555585e-02 -6.22388199e-02 +6.66147918e-02 -1.20338716e-01 +3.25659364e-02 +1.12280190e-01 +1.02211908e-01 +1.70908868e-02 -1.28503263e-01 +7.17992634e-02 +1.19651139e-01 +9.96842086e-02 +1.34847730e-01 +1.12055123e-01 -1.08374782e-01 -2.89435685e-03 +1.37428939e-02 -1.43115044e-01 -8.26476738e-02 -1.76258385e-03 -7.34316856e-02 -1.17737874e-01 -5.08119985e-02 +1.90144032e-02 -7.35875666e-02 +1.34799749e-01 +3.02502513e-03 +9.43071246e-02 +3.85451615e-02 +5.43880761e-02 -5.24373353e-03 +5.50191104e-02 -7.86532983e-02 -1.24624580e-01 +6.06508553e-02 +1.24463588e-02 +1.34631038e-01 -1.42845258e-01 -6.15101606e-02 +4.43647355e-02 -1.44037098e-01 +5.72919846e-03 +1.25845283e-01 -1.11477658e-01 +6.22212291e-02 -4.86542284e-02 +4.01319563e-02 -1.20663524e-01 +6.83328360e-02 +1.05756700e-01 +4.41560894e-02 -2.15980932e-02 -9.94982868e-02 -2.15551034e-02 -8.03222582e-02 +7.66906142e-02 +4.91528213e-02 -9.74942893e-02 +1.27791613e-02 +7.47494251e-02 +4.30393666e-02 +2.07696557e-02 -1.22451626e-01 +1.38963938e-01 +3.81197035e-03 +1.39715433e-01 -1.17903516e-01 +1.29309267e-01 +1.21071398e-01 +7.07128793e-02 -1.24285042e-01 +8.34343135e-02 -9.94149446e-02 -9.81918424e-02 -3.84152532e-02 +1.41941041e-01 -2.20725387e-02 -4.15652022e-02 +9.31293368e-02 -7.55175948e-02 +6.59510642e-02 +2.82154530e-02 -5.12648523e-02 -9.09795910e-02 +1.19082630e-03 -8.77378732e-02 +9.14581865e-02 -6.48421496e-02 -7.36500025e-02 -4.25387621e-02 -9.37129110e-02 +9.01556015e-02 +9.46405977e-02 -7.11173192e-02 +1.26070648e-01 -4.39086705e-02 -8.48745033e-02 -1.34572387e-04 -6.33222163e-02 +9.62883979e-02 -2.21925974e-03 +1.14278764e-01 -9.24679637e-03 -7.37865567e-02 -3.53869572e-02 -1.08125627e-01 +6.59693331e-02 +1.28378272e-01 +1.07572198e-01 -9.22468752e-02 +3.18883806e-02 +2.75195986e-02 -7.99289718e-02 +4.46338952e-03 +2.42257565e-02 +8.36027563e-02 -1.45966396e-01 +1.06277913e-01 -1.23663895e-01 -6.60475120e-02 +1.18510991e-01 +7.93943256e-02 -5.95031679e-02 -8.38075951e-02 -3.21150720e-02 +1.58396661e-02 +1.14640445e-02 -9.51850638e-02 -6.19610474e-02 -1.22457549e-01 -2.81513184e-02 +1.32709384e-01 +1.23766840e-01 -9.69234556e-02 +1.21018589e-01 -1.20910816e-01 -5.59644848e-02 +8.98346454e-02 -1.08120687e-01 +9.38685834e-02 +5.08143306e-02 -1.25334114e-02 -1.22434266e-01 +7.26567656e-02 +1.90538317e-02 -1.03537582e-01 -9.28273797e-03 +9.55761820e-02 -1.32238865e-02 -1.40720278e-01 -7.26419315e-02 -1.03097558e-02 -1.27687261e-01 -6.14034310e-02 +1.30017191e-01 -1.14145488e-01 +4.01821136e-02 -1.15398251e-01 -5.63444495e-02 +1.17244869e-02 +2.05987096e-02 +3.36453617e-02 +2.72120237e-02 +1.28567725e-01 -1.65063888e-02 -3.15853879e-02 +5.85912764e-02 -5.26659340e-02 -7.09250271e-02 +6.13192320e-02 -6.97776675e-03 -7.00531825e-02 -6.61938265e-02 +1.38804227e-01 +8.97909254e-02 -1.15103438e-01 +1.74682885e-02 -4.41498235e-02 +7.86645561e-02 +5.36872447e-03 +3.60248387e-02 +1.30835146e-01 +1.87959373e-02 +1.26653910e-01 +1.08608603e-03 -9.51726139e-02 -3.69855389e-02 +1.19332522e-01 -8.76187012e-02 +5.24254739e-02 -1.11157909e-01 -1.47053003e-02 +8.64548981e-03 +1.28667414e-01 -1.17807716e-01 -4.47158515e-03 -1.22284293e-02 +2.32117176e-02 -1.02006346e-02 -9.00434330e-02 +1.30097896e-01 +1.96812004e-02 -1.29264325e-01 -1.42725497e-01 -9.40966606e-03 -3.39458883e-03 +4.55520600e-02 -4.51574177e-02 +2.58411020e-02 -1.66160464e-02 -5.33168167e-02 +4.06701267e-02 +7.28996843e-02 -6.46071136e-03 -4.28092852e-02 -1.13297991e-01 -1.24737695e-01 -1.15542322e-01 -4.98046428e-02 -8.64887238e-02 +4.73208874e-02 -1.31829277e-01 +1.19362891e-01 +1.14179969e-01 -1.64420754e-02 -1.76963806e-02 +1.41375124e-01 +5.21660298e-02 +9.03623104e-02 -1.01768121e-01 +3.61872911e-02 -1.36494085e-01 -5.82516044e-02 +3.98835540e-03 -1.88578516e-02 +9.05481577e-02 +6.75702095e-02 -4.67776880e-02 +9.25437659e-02 -1.45708069e-01 -7.72595108e-02 +5.35400212e-03 -7.54888505e-02 +8.19128007e-02 +7.69692063e-02 -6.79124892e-02 +1.34636164e-02 -3.69437039e-03 +8.00344348e-03 +1.69019997e-02 -1.36371598e-01 -5.09974882e-02 +1.06191665e-01 +1.32149756e-01 -3.07099074e-02 +6.40363991e-02 -4.03536856e-03 -1.17721595e-01 -1.26358390e-01 -8.67092609e-02 -8.42940211e-02 +5.61084449e-02 +3.70351970e-02 +1.27762288e-01 -2.02496350e-02 -2.33402848e-02 +5.08572012e-02 +8.77894759e-02 +1.19514793e-01 -6.54505640e-02 +1.23607904e-01 +1.12564504e-01 +9.25761014e-02 -1.02498941e-01 -2.56308094e-02 +1.58506632e-03 -9.36325788e-02 -1.43924877e-01 +8.57564807e-03 -1.15020201e-01 -8.28445479e-02 -9.02267620e-02 -4.08508405e-02 -8.13135505e-02 -7.14479089e-02 -4.31606919e-02 -7.61276409e-02 -1.01039916e-01 +1.01928487e-01 +8.47078413e-02 +1.03439793e-01 -9.85196605e-02 -9.29252803e-03 +8.17321092e-02 -5.30297235e-02 +4.59670424e-02 -1.67396814e-02 -1.11939579e-01 -1.63425952e-02 +4.63547856e-02 -1.13376535e-01 +1.44526213e-02 -1.25740707e-01 -8.63699466e-02 +1.25054270e-01 -1.18047565e-01 -1.42203346e-01 -1.32163092e-01 -7.39153102e-02 -4.91622612e-02 +1.29224688e-01 +1.19931847e-01 +8.59564096e-02 +9.23930109e-03 +7.98016936e-02 +4.23976332e-02 +4.42638248e-02 +1.65881068e-02 -1.09315887e-01 +9.60792303e-02 +6.98671341e-02 +2.05733329e-02 -8.02301764e-02 -1.67641044e-03 +5.77917248e-02 +9.18233842e-02 +1.10555053e-01 +8.11294764e-02 -1.04282543e-01 +3.91886979e-02 -9.54011455e-02 -5.02286032e-02 +1.43723220e-01 -8.62925425e-02 +7.98698813e-02 -1.28320113e-01 +1.01885304e-01 +1.21272981e-01 +1.12054467e-01 -9.38638002e-02 +1.37960523e-01 -5.66913188e-03 -7.11862743e-03 -4.38093096e-02 +1.24678761e-01 -8.21463987e-02 +1.12551510e-01 -4.50435579e-02 +1.22471958e-01 +1.29768521e-01 +1.12004697e-01 +1.93172693e-02 -1.17887922e-01 +5.88048846e-02 +6.55850172e-02 +1.21261299e-01 -2.12377757e-02 +1.93596184e-02 -3.03284079e-02 +5.79781085e-02 -1.29673019e-01 +4.25575376e-02 -6.21226802e-02 -5.28771430e-02 -3.57317477e-02 +7.72363693e-02 -6.11493662e-02 +9.29877907e-02 -1.19283929e-01 -1.50180906e-02 -1.38441235e-01 -8.62632766e-02 +2.27764249e-04 -5.91772571e-02 +9.78615731e-02 +1.39708787e-01 -2.47807503e-02 +7.23596811e-02 -9.09755751e-02 -3.68638709e-02 +9.40478295e-02 +1.27075464e-01 -2.49531865e-02 -1.15116805e-01 +8.01626891e-02 +4.48499620e-02 +1.39133394e-01 -1.67047977e-02 -5.15652001e-02 +8.22878778e-02 -1.01236761e-01 -1.24930307e-01 -1.17999405e-01 -1.04518324e-01 +6.78861439e-02 +6.98211789e-03 +6.82462752e-03 +1.34609908e-01 +5.77191561e-02 +8.10582191e-02 +1.87888741e-02 +6.27581775e-03 +1.31907284e-01 -8.04696977e-03 +9.37598050e-02 +1.63206607e-02 -3.69369984e-02 +6.76131248e-03 -2.10985988e-02 +1.35957003e-02 -7.97529593e-02 -1.24716073e-01 -9.73787606e-02 -9.82420221e-02 +1.12322807e-01 -6.84610158e-02 +8.34283233e-03 +1.99074596e-02 -1.34391516e-01 +9.21104699e-02 +1.37285888e-01 +6.08333796e-02 -9.13147554e-02 +1.61258280e-02 -3.46053690e-02 +1.01742625e-01 -7.81183094e-02 -1.31717861e-01 -8.06249529e-02 -7.41258264e-03 +1.00609303e-01 +1.20643377e-02 +8.31480771e-02 +6.46024197e-02 +1.05377018e-01 -7.96148777e-02 +1.36028111e-01 +3.26063186e-02 +7.67772198e-02 -4.74499986e-02 +1.15194947e-01 +3.83017510e-02 -6.09569177e-02 -5.50750569e-02 +1.71365589e-02 +8.76406133e-02 +8.70617777e-02 +1.96242779e-02 +5.77588528e-02 +1.19524866e-01 -1.15960129e-01 +1.10197306e-01 +2.94218063e-02 -7.46674314e-02 +5.89934289e-02 +1.29026920e-01 +2.53160298e-03 -5.46153635e-02 -6.56744316e-02 +9.72931087e-03 +9.05383974e-02 +1.26636446e-01 +1.20774925e-01 -1.33576855e-01 +1.30937517e-01 +9.99985039e-02 -1.33299768e-01 +7.87359476e-02 -1.02416888e-01 +4.16568220e-02 -9.00561437e-02 -1.81085765e-02 -1.25057772e-01 -9.07241404e-02 -1.02943897e-01 -1.17868185e-02 +5.68944365e-02 -1.36098668e-01 -9.98654887e-02 +2.68904716e-02 -1.10316128e-02 -1.36848465e-01 -9.05164629e-02 +1.21331066e-02 -4.46389839e-02 +4.18247581e-02 +1.14697456e-01 +1.23482406e-01 -9.94493067e-02 +5.67165464e-02 +1.13800615e-01 +5.06832153e-02 +3.91252041e-02 -1.18585043e-01 -8.82354900e-02 +2.05271393e-02 -7.96819329e-02 -6.81046098e-02 +1.33507341e-01 -4.76699248e-02 +5.81049472e-02 +7.11639225e-02 -9.97912139e-02 +9.60191190e-02 -1.09862506e-01 +7.71560073e-02 +5.64025939e-02 -1.15021244e-01 -1.20813534e-01 -4.37643602e-02 -1.33451387e-01 -1.16775386e-01 -7.35167041e-02 -1.71691924e-02 -1.16131604e-02 -2.07998008e-02 +5.03113270e-02 +6.47410601e-02 -4.04988751e-02 -1.74905360e-03 +5.23539037e-02 +2.17298418e-02 -5.87187633e-02 +5.30340970e-02 +2.30759382e-04 -1.29654109e-01 -1.99759007e-03 -9.17337835e-02 -1.11476965e-01 +2.63213217e-02 -4.78390679e-02 -1.63079351e-02 +9.15541202e-02 +1.35972768e-01 +2.87878662e-02 -7.36262575e-02 +9.42974538e-02 +1.32998675e-01 -9.63081867e-02 -1.83605403e-02 -1.21365488e-03 -3.16541865e-02 +6.93978518e-02 +5.37864119e-02 -1.41920760e-01 -1.51561946e-02 -1.43278480e-01 +2.81467438e-02 -5.64016551e-02 +1.07926548e-01 +1.12042427e-01 -1.07487515e-01 +3.17988098e-02 -5.71651086e-02 -1.11618638e-02 -5.26692867e-02 +5.21453768e-02 +8.37126523e-02 -1.15625903e-01 +1.08921468e-01 +4.93433774e-02 -9.24029946e-02 +5.57653904e-02 +1.36377275e-01 -7.33512640e-03 +6.89052641e-02 -7.21275136e-02 +2.01961994e-02 +3.90103608e-02 -1.15363427e-01 -8.77812132e-02 -9.85133350e-02 -4.55418602e-02 +1.13618076e-01 -9.25283805e-02 +1.35069907e-01 +6.65326118e-02 +5.91425300e-02 -1.02529846e-01 +1.30108893e-01 +9.09040570e-02 -7.24400431e-02 -6.78539947e-02 +1.02854714e-01 -9.15459692e-02 -2.24716961e-02 -1.34217575e-01 -7.78981224e-02 -5.89361787e-02 -3.57847214e-02 +2.74936855e-02 -1.18886814e-01 -4.88094166e-02 -4.06646430e-02 +7.34167397e-02 -3.00056189e-02 +9.38345641e-02 -7.04139471e-03 -6.79146871e-02 -7.39993080e-02 -9.99025553e-02 -3.01118493e-02 +1.37290508e-01 +1.71881318e-02 -3.50817293e-02 -2.18838826e-02 -9.92269740e-02 +1.20664626e-01 -8.41686130e-03 +6.21037334e-02 +1.45802647e-01 -8.42278302e-02 +5.58364391e-03 +6.66713715e-02 -9.15908217e-02 +5.28461337e-02 +4.69822884e-02 -7.89050460e-02 -7.14648440e-02 -2.07621604e-02 -3.58701125e-02 +6.16936684e-02 -1.44333854e-01 +1.23205721e-01 -6.81610703e-02 -1.12851366e-01 -1.28812119e-01 -1.35979533e-01 +1.31212026e-01 -1.12467758e-01 -4.93049845e-02 -1.11318454e-01 +6.74498379e-02 +7.15659857e-02 -3.43037620e-02 -1.46350712e-01 -8.14622194e-02 +2.07363665e-02 +3.21234465e-02 +3.77590805e-02 +1.44101143e-01 -1.40421391e-01 -1.16293751e-01 -1.93441510e-02 -1.33702859e-01 +1.02642044e-01 -6.31333292e-02 +7.30736554e-02 -1.42618164e-01 -6.36611655e-02 -9.19037983e-02 -2.01488137e-02 +1.09793693e-02 -5.35457507e-02 +1.23533309e-02 +1.11453891e-01 -1.19568050e-01 -8.30420703e-02 +1.13384128e-02 +4.67656851e-02 -5.83501756e-02 +9.61413682e-02 +5.04437536e-02 -1.80216730e-02 -1.88445300e-02 -6.26692325e-02 -7.94893801e-02 +1.12597346e-01 +1.88256502e-02 -1.09375507e-01 +1.16297841e-01 -4.29757088e-02 -9.67485011e-02 +4.98169959e-02 -6.48215413e-03 +5.39916903e-02 -1.11595392e-01 +1.46229982e-01 +7.39094019e-02 +6.98740780e-02 -5.01317829e-02 +5.33062220e-03 +2.41596401e-02 -7.81850368e-02 -3.43664065e-02 -7.61428624e-02 +3.57360691e-02 +9.36697423e-03 -2.66110525e-02 +1.03041127e-01 -2.06626952e-03 +1.30727738e-02 -7.80153275e-02 +2.52971202e-02 +1.47819519e-02 -1.38447598e-01 -1.08850002e-01 -2.11884379e-02 +1.03992105e-01 -1.10526860e-01 -1.20318383e-02 +6.83593899e-02 -1.39978111e-01 -2.43372768e-02 +6.66531771e-02 +8.23920965e-02 +1.03999019e-01 -7.40100443e-03 -5.72549179e-02 +2.99014896e-02 -6.03080094e-02 +1.17381066e-01 -3.15515101e-02 +8.06295276e-02 +2.65465528e-02 -9.83271897e-02 +2.46066749e-02 -4.46531624e-02 -1.18697144e-01 -1.86721981e-03 +6.55243993e-02 -1.70341432e-02 +8.55107605e-02 -4.10301760e-02 +8.32086653e-02 +6.20178282e-02 -2.21386403e-02 -3.34882513e-02 -3.69598195e-02 +3.23331058e-02 -8.14251974e-02 +1.26653403e-01 -1.07659392e-01 -5.21879196e-02 +1.45846665e-01 +3.34068388e-02 +8.27723294e-02 +5.37560880e-02 -1.08298033e-01 +3.28719616e-05 +1.86842680e-03 -1.74253285e-02 -9.35144871e-02 +1.07787549e-01 -8.87641758e-02 -7.60477707e-02 +1.16528064e-01 -6.37415051e-03 -1.00477770e-01 +1.10692263e-01 +7.60128349e-02 +1.31547153e-01 +9.11333859e-02 -1.43937126e-01 +1.41538411e-01 +4.73443568e-02 +1.14422560e-01 -7.05193877e-02 -8.20498317e-02 -2.76472867e-02 +4.95128930e-02 -9.29164737e-02 -1.35395497e-01 +2.47819722e-03 +1.23051077e-01 +1.57187879e-03 -2.20926702e-02 -1.43878579e-01 -4.89320457e-02 -1.17143475e-01 -9.01976228e-03 -1.34528726e-02 -1.45781755e-01 +1.18399501e-01 -8.99706334e-02 +5.21044731e-02 +1.15459800e-01 +1.36258334e-01 -1.58399194e-02 +9.63198096e-02 -3.20759192e-02 -5.86210713e-02 +8.38108063e-02 -8.25496167e-02 -9.10166651e-02 +4.80127633e-02 -1.01633467e-01 +3.35427076e-02 +1.08295321e-01 +4.93040234e-02 +4.37788665e-02 -8.35104287e-03 +1.02764130e-01 -3.78782824e-02 -7.67391622e-02 -1.42158702e-01 +1.08278543e-02 -3.72386277e-02 -1.39410987e-01 -1.29645050e-01 +3.09906453e-02 +4.83216792e-02 -9.46717411e-02 -3.89668122e-02 -1.56753510e-02 -9.08100307e-02 -5.23649976e-02 -9.41429809e-02 -3.67951393e-03 +1.43063039e-01 +1.13808483e-01 -1.07423916e-01 -1.41756177e-01 -1.40135735e-01 -1.02703884e-01 -8.59913677e-02 +7.64193237e-02 -8.16231072e-02 +1.16114169e-02 -6.69068396e-02 -6.12413734e-02 -7.52164945e-02 +1.45809442e-01 +1.25878066e-01 -5.00588492e-02 +2.88622528e-02 +5.19140065e-03 +3.51153016e-02 +4.04282212e-02 +1.18894309e-01 +5.76944947e-02 -1.11272007e-01 -1.07804090e-02 +4.52421606e-03 -6.20553195e-02 +1.31476671e-01 +1.13112152e-01 -1.10072404e-01 +7.67844915e-02 -7.97424763e-02 +1.00979894e-01 +1.11309558e-01 -1.98560655e-02 +1.19470417e-01 -1.38664588e-01 -2.95412466e-02 +4.49031591e-03 -9.86497402e-02 -1.78065598e-02 -9.92826745e-02 +7.37579018e-02 -3.05352062e-02 +7.68997669e-02 +3.15335691e-02 +4.70898747e-02 +3.68145704e-02 +3.59352976e-02 -8.76847133e-02 -1.12704471e-01 +2.56927907e-02 -1.36564925e-01 -1.00509629e-01 +1.09638661e-01 +4.92284149e-02 -2.59371698e-02 -3.59865949e-02 -3.58940363e-02 +9.58214700e-03 -1.18797414e-01 +7.00160712e-02 -5.77834621e-02 +4.03390229e-02 -5.51888645e-02 +1.43635124e-01 -8.31851438e-02 +1.36230201e-01 +1.06481999e-01 +9.61032510e-03 +4.36201692e-03 +6.40983880e-02 -7.74563849e-03 -1.22484073e-01 -1.14143223e-01 -1.07622683e-01 -6.34670258e-02 -2.31412351e-02 -1.26373813e-01 +6.69040084e-02 -2.19027698e-03 -1.28931925e-01 -5.73018640e-02 -8.97890180e-02 -9.81685817e-02 +4.35632914e-02 +6.70714676e-02 -2.23594233e-02 -6.25216588e-02 -1.16818599e-01 +1.08426571e-01 -1.08495735e-01 +3.68294567e-02 -2.86234990e-02 -1.41905159e-01 +1.39792889e-01 +8.62140656e-02 +2.30555981e-02 +3.21556181e-02 +8.41218084e-02 -1.90647840e-02 -9.32498649e-02 -3.14441472e-02 -9.72987860e-02 -1.11676358e-01 -1.21544719e-01 -4.03439999e-02 -6.35544732e-02 -7.83418790e-02 +1.33171022e-01 -2.88075134e-02 +1.26857847e-01 -1.33620366e-01 -8.49430263e-02 -6.51722625e-02 +1.30512327e-01 -5.39927185e-02 +1.30032420e-01 -9.79456007e-02 +8.35100114e-02 -1.37251794e-01 +8.27576071e-02 +7.66439736e-02 +5.03208488e-02 -3.27865407e-02 -8.36766958e-02 +4.32113707e-02 -3.38750035e-02 +9.18217003e-03 -8.84659886e-02 -9.76385176e-03 -1.43232837e-01 +2.20459402e-02 -7.88577944e-02 +9.22594368e-02 -1.33019641e-01 +1.36088282e-01 +1.38092756e-01 -8.83737430e-02 -2.46025994e-02 +1.25284642e-01 -6.09054491e-02 +9.05506313e-03 -1.06527314e-01 +1.36573255e-01 -3.46653014e-02 +9.37712342e-02 +3.71352732e-02 -7.77052343e-03 +1.10360682e-01 -7.41421059e-02 -4.92530838e-02 +1.01624131e-02 +1.29231334e-01 -4.58958149e-02 -1.05031885e-01 -1.18121147e-01 -1.29172593e-01 -9.68052149e-02 +6.92166835e-02 +2.13514864e-02 +5.40600568e-02 +4.38985825e-02 -1.28029406e-01 -2.93806195e-04 -1.73833966e-03 +1.23394519e-01 +2.30305642e-02 +9.16215181e-02 -7.22592548e-02 -5.61629608e-02 -7.12527484e-02 +1.40188426e-01 -1.41191423e-01 +3.49234343e-02 +1.43599957e-01 -1.16812095e-01 +8.33263993e-03 -9.18226317e-02 -4.55771983e-02 -9.71903652e-02 -1.14196599e-01 +1.18031502e-01 -1.21758915e-01 +7.92640597e-02 +1.22523189e-01 -1.18187517e-02 +6.18017614e-02 +1.25291258e-01 -1.88691616e-02 -1.42648771e-01 +1.05739892e-01 -8.41526389e-02 +1.01554498e-01 -5.08518443e-02 -6.20361716e-02 -1.26650780e-01 +1.13780409e-01 -1.40102446e-01 -7.29942843e-02 -1.04421839e-01 -1.07994631e-01 +6.18432909e-02 -9.62039828e-03 -4.63712215e-02 -1.14673898e-01 -9.69501138e-02 -8.71515572e-02 -5.30797914e-02 -1.30724758e-01 -9.31736827e-03 +4.73211557e-02 -9.02303308e-02 -9.54155624e-03 -2.23726183e-02 -1.30950004e-01 -5.78345209e-02 -7.87357986e-03 +7.48857707e-02 -1.11007586e-01 +1.05309933e-02 -8.05191621e-02 +9.90767181e-02 -6.47125468e-02 +1.42631620e-01 +6.10724092e-04 +1.41375154e-01 +1.34642839e-01 -2.42952332e-02 +1.17327988e-01 +7.93496966e-02 -1.40834764e-01 +1.34723336e-01 -4.16787341e-02 +3.15521359e-02 -8.42179805e-02 -1.42935395e-01 +1.04935437e-01 +2.29543447e-03 +6.95150197e-02 -8.09580088e-05 +4.07357663e-02 -4.15939093e-02 +6.03090078e-02 -1.36047602e-04 +1.63637251e-02 +6.24681711e-02 -1.21991061e-01 -5.15278503e-02 -2.17744708e-03 +4.38136458e-02 +7.42341280e-02 -8.69869739e-02 +5.39500713e-02 +4.63984907e-02 +5.00316918e-03 -5.64318001e-02 -3.18930969e-02 +3.38019878e-02 -1.02195874e-01 -5.06486222e-02 -1.00139990e-01 -1.01712152e-01 -1.22131281e-01 +3.38743478e-02 -6.78057671e-02 +3.18206847e-03 +9.14807767e-02 -6.89710528e-02 +7.24803060e-02 -1.14043951e-01 -9.55946296e-02 +8.61872137e-02 -3.95976081e-02 -2.22484097e-02 +2.68354416e-02 +2.44986564e-02 +1.86852813e-02 -9.50639546e-02 +6.05927557e-02 -7.48213530e-02 -3.66749465e-02 +1.32016599e-01 -9.45436954e-02 -1.10374555e-01 +8.82650912e-02 -1.44905940e-01 -6.44479692e-02 +4.14285064e-02 -1.05059378e-01 -3.37739587e-02 +7.15645403e-02 -2.70442590e-02 -6.34608418e-02 -9.08562839e-02 +7.64788687e-03 -6.04444891e-02 +1.18497938e-01 +9.92450416e-02 +1.45469725e-01 -7.34299049e-02 +4.94913757e-03 -1.27229333e-01 +4.40808237e-02 -8.87719914e-02 +6.75916970e-02 +5.48407435e-02 +6.82406425e-02 -1.33949518e-01 -5.31008318e-02 +8.31075013e-02 +7.89396167e-02 +7.43044913e-03 -4.46940511e-02 +9.98725444e-02 -5.00098094e-02 +9.75712091e-02 -1.07040346e-01 +3.08963954e-02 +3.59969139e-02 +2.64943540e-02 -1.38533413e-01 -5.49021140e-02 -1.06976517e-01 -1.49299949e-02 +7.08630830e-02 -8.39794278e-02 -2.38739923e-02 -8.46011192e-02 +3.49516571e-02 +8.72239619e-02 +8.73422176e-02 +9.93455648e-02 +6.17362112e-02 -7.43724555e-02 +6.64862990e-02 -6.72826171e-02 -1.33395389e-01 +3.71795148e-02 -7.25862756e-02 +7.61339962e-02 -1.36562318e-01 -1.36394918e-01 -6.58218786e-02 -3.69528532e-02 -1.30375773e-01 -1.08212933e-01 -2.46309116e-02 +6.89866990e-02 +8.85201842e-02 +1.02853566e-01 -7.50790611e-02 +1.01235807e-02 -1.35679826e-01 -1.20960549e-01 +1.07649028e-01 +1.06996894e-02 +1.25308901e-01 +5.39357960e-03 +1.03884339e-02 +3.52847576e-02 -1.50036514e-02 -8.91128480e-02 +6.28484786e-02 +8.95448923e-02 -2.78614387e-02 -1.82541609e-02 -9.86312553e-02 -1.37569815e-01 +1.37471676e-01 -6.12356290e-02 +8.29875618e-02 -2.98675001e-02 +8.42856765e-02 +7.61962682e-02 +5.73100597e-02 -4.05041873e-03 -1.41982734e-03 +1.38592601e-01 +9.00551677e-04 -5.22615537e-02 -8.40215385e-02 +1.24665558e-01 +1.19597793e-01 -9.07062441e-02 -1.01656012e-01 +1.40668869e-01 -1.08718157e-01 +4.22409177e-03 +1.23902112e-02 +2.75313854e-04 -3.90219688e-03 +9.72707570e-03 -9.66888219e-02 -1.24976508e-01 -2.90417597e-02 -1.39917582e-01 -1.33296415e-01 +2.91649997e-02 -1.23227291e-01 +1.33232862e-01 -9.38776731e-02 -4.55167666e-02 +6.26264215e-02 -2.81673446e-02 -5.49467877e-02 +4.19004112e-02 +9.06427503e-02 -4.31197807e-02 +3.78672779e-03 +1.24549389e-01 -1.20413326e-01 +4.90453392e-02 -4.67043966e-02 +1.14888668e-01 -1.43061548e-01 -7.85655901e-02 -5.03617823e-02 -3.92776206e-02 -1.16306424e-01 -1.33822620e-01 +1.29910350e-01 -2.12477595e-02 +2.36714333e-02 -1.26410842e-01 +1.37652457e-02 +1.03175357e-01 +3.76528651e-02 -1.13318205e-01 +5.03467172e-02 -5.84647059e-04 -1.66172385e-02 -1.46291271e-01 -1.76709592e-02 +2.58827358e-02 -8.47683474e-02 +9.52122808e-02 -3.65724415e-02 -2.46755257e-02 +5.04931808e-02 -7.10415468e-02 -7.39939138e-02 +8.04080814e-02 -5.30522987e-02 -6.38760775e-02 +8.26606154e-02 -1.94834471e-02 -1.01757288e-01 +7.40320534e-02 +9.11331773e-02 -3.13265249e-02 +9.89420265e-02 +8.44833404e-02 -1.25452891e-01 -1.34891689e-01 +4.34584022e-02 -1.23866469e-01 +1.42524838e-01 -1.28303751e-01 -3.27748060e-03 +6.77979290e-02 +2.99684703e-02 +1.42522544e-01 +6.96153343e-02 -1.06794059e-01 -4.18716148e-02 +1.26313716e-02 +1.32052302e-02 +1.34024918e-01 +5.11003584e-02 +1.41323507e-02 -1.22445889e-01 +7.37125278e-02 +9.04750377e-02 -7.18586892e-02 +1.29657477e-01 -2.38091126e-02 -4.08287123e-02 -3.17380726e-02 +6.38877153e-02 -2.13982165e-02 -8.59305561e-02 -1.10486679e-01 -4.31456193e-02 -1.04078501e-01 +3.80325317e-03 -6.61285445e-02 +4.20137495e-02 +1.44074947e-01 -1.30896777e-01 +6.04100078e-02 +9.10422206e-03 -6.58030957e-02 +1.44751221e-01 -1.19829096e-01 +5.08690327e-02 -2.28279009e-02 +1.01311296e-01 -1.08214311e-01 -3.00167352e-02 +6.15963787e-02 -1.07586160e-01 +2.23761946e-02 +8.72806460e-02 -2.82851532e-02 +4.60667908e-03 +8.38357508e-02 +1.29602909e-01 +1.93645060e-02 +1.60446167e-02 -1.15343407e-01 -3.00446451e-02 -4.72192615e-02 +6.03049994e-03 -2.21201852e-02 -6.46086559e-02 -8.16483051e-02 +1.45167530e-01 +2.48278230e-02 -1.21645421e-01 -5.37072197e-02 +1.14965707e-01 -1.33721963e-01 -1.34968176e-01 -5.20622060e-02 +1.06405288e-01 +3.27876210e-03 -1.01718292e-01 +1.03553802e-01 +5.45445979e-02 -1.42416760e-01 +3.82678509e-02 +1.05783492e-01 +5.81113249e-02 +1.39839500e-01 +1.12456828e-02 -5.33720478e-02 -1.06101781e-01 +1.18434429e-03 +4.79669720e-02 -1.01073980e-02 +5.94057441e-02 -5.43569848e-02 -6.97989017e-02 +1.25470310e-01 +1.72150582e-02 +3.03201228e-02 +3.86321843e-02 +7.17426986e-02 -1.20306030e-01 +1.19759142e-02 -1.29557371e-01 +9.82624292e-02 -1.41098097e-01 -7.67741501e-02 -1.37486130e-01 +1.36851370e-01 -1.04125202e-01 -7.53036141e-02 -2.87889466e-02 -8.89003426e-02 -4.98258993e-02 +2.97540128e-02 +2.01495737e-02 -8.33238065e-02 -1.35133639e-01 +8.07631016e-02 -1.10049233e-01 -8.85206461e-02 +9.91280675e-02 +5.73193431e-02 +8.63015503e-02 -9.84546095e-02 -1.10733509e-03 -5.09051532e-02 -1.16678342e-01 +1.92444623e-02 +1.08966649e-01 +7.12997615e-02 -1.33833319e-01 -4.64167297e-02 +5.20900339e-02 -8.07384253e-02 +7.82769918e-02 -1.24331132e-01 -6.30811527e-02 +4.76599932e-02 +8.97773653e-02 +1.45330787e-01 -1.25407428e-02 -2.61399299e-02 +3.85058075e-02 -6.20806068e-02 +3.45516205e-02 +6.66881502e-02 +2.20252275e-02 -1.05322495e-01 -1.41389832e-01 +1.08881950e-01 +8.90641361e-02 +1.28777474e-01 -2.42198184e-02 +1.22561574e-01 -1.92730427e-02 +8.91517103e-03 +2.53544450e-02 -9.82815176e-02 +1.71854198e-02 +2.14941651e-02 -9.82736871e-02 -4.14703190e-02 +1.18411809e-01 -4.18859646e-02 +4.05759662e-02 +6.74061924e-02 +2.71241963e-02 +1.28541440e-02 -2.73659378e-02 +1.05759770e-01 +1.15747362e-01 -1.96743459e-02 -6.09845817e-02 -1.00493692e-01 -1.21938497e-01 +2.66751647e-03 -9.69770253e-02 +5.06686270e-02 -9.53313261e-02 +7.47477561e-02 +1.30017191e-01 +4.30737734e-02 +7.32831657e-02 -1.75329447e-02 +4.59988564e-02 -6.31970093e-02 +1.89608485e-02 -1.23041697e-01 -4.47280481e-02 +5.82731515e-02 +1.35202944e-01 -6.43193647e-02 +8.47468525e-02 -2.67921537e-02 +4.74443138e-02 -1.06335133e-02 +6.82663620e-02 -2.17669532e-02 +1.40092552e-01 +4.56686914e-02 +1.98732018e-02 +8.73844922e-02 +1.87722594e-02 +8.08456540e-02 -6.31809235e-06 -7.54762888e-02 +7.38475770e-02 +1.00977927e-01 -6.84566870e-02 +1.14276826e-01 +1.11977756e-01 +4.97597456e-03 -2.64077559e-02 +4.99974936e-02 +5.04651219e-02 -3.69070619e-02 +1.07906580e-01 -4.91961986e-02 -8.79450589e-02 +1.14737689e-01 -1.12639070e-02 +5.75699508e-02 -1.16858460e-01 -1.98960006e-02 -4.03869823e-02 -5.01022562e-02 +6.86922818e-02 +9.15031880e-02 +1.20876372e-01 +6.49525076e-02 -1.13379985e-01 -5.37717417e-02 +3.68344486e-02 -3.23623121e-02 -6.80809319e-02 +3.91772091e-02 +1.17536575e-01 -6.67382404e-02 +6.06939644e-02 +6.63104206e-02 -1.15923956e-01 +6.04894012e-02 -5.80432341e-02 +7.65548646e-02 +1.21615201e-01 +1.21507466e-01 +3.91128212e-02 +3.84372473e-02 +1.02171391e-01 +6.67261481e-02 +1.20793194e-01 -8.35711583e-02 +1.31235868e-01 +9.01971161e-02 -1.24282435e-01 -6.13719225e-03 -3.71752679e-02 -1.29158378e-01 -6.15913868e-02 +6.32726103e-02 -4.44988012e-02 -4.22903746e-02 -1.25192121e-01 -3.32564116e-04 -3.94863859e-02 -1.40509024e-01 -1.06684506e-01 -1.41374394e-01 -6.73711300e-02 -1.34495646e-02 +7.09960014e-02 -4.36620042e-02 -1.77710950e-02 +2.56993026e-02 -7.06479028e-02 +7.50950724e-02 +1.02149516e-01 +1.43769681e-01 +1.18784726e-01 +8.67909640e-02 -6.60153180e-02 +5.04718572e-02 +1.44520402e-02 +2.15698928e-02 +9.91237313e-02 -1.31546855e-02 -3.81437317e-02 -4.91965339e-02 -1.28854662e-02 -3.39979231e-02 -1.43389434e-01 -5.31173572e-02 -1.35754332e-01 +1.08742982e-01 +3.74019146e-05 +9.87251103e-02 -6.91401511e-02 +7.15334415e-02 -7.70345405e-02 +7.21958280e-02 -6.30163848e-02 -7.63038993e-02 +2.01219916e-02 +5.41141480e-02 -1.38102368e-01 -1.25455514e-01 -1.13455474e-01 -7.66444579e-02 -4.11903933e-02 +1.23227745e-01 +8.31349492e-02 -1.40986666e-01 +7.36633688e-02 -1.38731316e-01 +9.74468291e-02 +2.43148655e-02 -9.45634246e-02 +5.48450649e-02 -2.43364573e-02 -5.04301712e-02 -4.45148498e-02 +1.03178710e-01 +5.49768806e-02 +6.07318133e-02 +5.33722341e-03 -1.44217610e-02 -1.43320888e-01 +1.41551942e-01 -1.25200242e-01 +5.75180352e-02 +4.56222892e-03 -1.04445904e-01 -3.65660042e-02 +9.71925855e-02 -1.10793397e-01 +7.60617852e-03 -1.03181139e-01 +7.06141144e-02 -3.93508375e-02 +6.76324964e-02 +7.15420246e-02 +1.37017608e-01 +1.38722867e-01 +4.14399654e-02 +6.51917905e-02 -1.33723021e-03 -1.32128730e-01 -2.68305317e-02 -2.98072398e-02 +3.91860008e-02 +8.90986323e-02 +5.96349686e-02 +9.72521603e-02 -4.83348966e-03 -1.06265210e-01 -4.25298959e-02 -1.22458480e-01 -6.28065541e-02 -4.02604565e-02 +6.63699210e-02 +1.23454660e-01 +1.14823312e-01 +1.04610860e-01 -1.38990924e-01 +1.17450684e-01 -1.25234902e-01 +2.15691626e-02 -1.59445703e-02 +7.17967302e-02 +1.21563375e-01 +1.40412539e-01 +1.27408952e-01 +8.31009150e-02 -7.21178129e-02 +7.88400918e-02 -6.87611476e-02 -4.46839780e-02 +1.25072718e-01 +4.44905460e-02 -5.94396144e-02 -8.76738280e-02 -1.41323268e-01 -1.03930235e-02 -5.79064265e-02 -3.59584391e-03 -1.15126818e-02 +8.59237611e-02 -1.17081314e-01 +3.70702147e-02 -5.76117858e-02 +6.24270141e-02 -1.08742222e-01 -3.78692970e-02 -2.36844048e-02 +1.26490235e-01 -1.26569286e-01 +1.16105944e-01 +7.38022923e-02 -2.00560838e-02 -9.02974904e-02 +1.61665678e-02 +1.30931109e-01 -1.98417455e-02 +1.16676271e-01 -3.21788788e-02 -6.96805790e-02 +1.22148901e-01 -9.56418216e-02 -1.10680558e-01 +1.05456084e-01 +1.38564885e-01 +1.83182955e-03 +1.44555062e-01 +1.41037256e-01 -1.27506658e-01 +8.04940313e-02 +6.75036758e-02 +5.89099526e-03 -4.28496301e-02 -9.42805111e-02 +1.33747756e-02 +1.16899133e-01 +5.00302911e-02 +5.09385318e-02 +1.32553935e-01 -1.33079603e-01 +4.24251705e-02 +6.40371442e-02 +4.37308699e-02 -4.65696380e-02 -7.07376450e-02 +1.14395261e-01 +9.53635722e-02 -9.59786773e-03 -4.43965569e-02 +5.46964407e-02 +6.03192449e-02 +1.09059513e-01 +1.36466831e-01 +4.92598861e-02 +1.25290006e-01 +1.16970152e-01 +1.10868067e-01 +1.32092565e-01 +6.21058494e-02 +7.12905079e-02 +8.55590403e-03 -8.35790634e-02 +8.15624148e-02 +1.31047070e-01 -4.16788459e-03 +1.39859647e-01 +6.41728491e-02 +1.17702454e-01 +1.52200460e-02 +1.42845333e-01 +2.00744420e-02 -9.91269946e-03 -8.52078795e-02 -1.41497478e-01 +4.79577929e-02 -8.56959075e-02 +1.05921477e-02 +1.22788846e-01 -1.02639973e-01 +2.20474601e-03 -2.10201591e-02 -4.35727239e-02 +3.41247171e-02 +1.38603151e-01 -9.78617370e-03 -5.51010817e-02 -2.64300704e-02 +5.18146604e-02 -6.61702454e-03 -1.16187476e-01 +9.54603255e-02 -1.14818916e-01 -1.26816124e-01 -7.48952702e-02 +2.30696350e-02 -8.84632468e-02 +1.00704908e-01 +1.25917792e-01 +7.22955167e-03 -8.86036009e-02 -2.76083127e-02 +9.25088823e-02 -7.44682252e-02 -1.70837492e-02 +1.06599987e-01 +9.33471322e-02 +8.85535777e-03 -1.40908882e-01 +1.29756331e-01 +7.94013590e-02 -6.34630620e-02 +1.22954726e-01 +1.78597569e-02 +3.21906358e-02 +7.53891915e-02 +9.32494104e-02 +9.56295878e-02 +7.78501183e-02 -7.32839182e-02 +1.05215311e-02 +8.61014128e-02 -1.06703162e-01 +3.75511497e-02 -1.05963804e-01 +3.76064181e-02 -1.23684414e-01 +1.06319338e-01 +8.20981264e-02 -7.32774287e-02 -3.90928909e-02 +1.16364688e-01 +8.40891004e-02 +2.54795402e-02 -9.20461714e-02 +6.13129139e-02 -6.22288585e-02 +5.73286712e-02 +1.26005739e-01 -8.15642402e-02 -4.69721034e-02 -9.21660662e-03 +1.43434376e-01 -1.46291628e-01 -2.87119001e-02 +1.27085179e-01 +4.79860902e-02 +3.42356563e-02 +1.14701241e-02 -1.11010075e-01 -5.02176657e-02 -4.27022129e-02 +7.62562603e-02 +1.33493900e-01 +1.78561360e-02 +1.16900951e-01 -2.80490369e-02 +8.73934478e-02 -2.04060525e-02 -1.31983668e-01 -2.38516182e-02 -9.71471965e-02 +4.48424369e-02 +2.30032951e-02 -1.07668340e-01 -3.92028019e-02 +8.80482346e-02 +9.54767317e-02 -5.40897697e-02 -1.24961063e-01 +1.17869675e-03 +1.46181762e-01 +7.72937536e-02 -6.12162054e-03 +2.06892341e-02 +2.23801434e-02 -6.97238222e-02 +2.57448405e-02 +3.22636366e-02 -4.97057438e-02 -1.28791407e-01 +7.83011317e-02 -2.88178995e-02 -1.22346520e-01 +1.10282987e-01 +1.26914382e-02 +8.45159143e-02 -3.34769264e-02 -1.39916494e-01 -1.21985279e-01 +1.62173659e-02 +3.18793058e-02 +1.37672573e-02 -1.25445575e-01 +2.30033845e-02 +9.08737183e-02 -4.51458320e-02 +5.18036485e-02 +8.49974006e-02 +9.05013829e-02 +5.12910038e-02 +1.06860161e-01 -9.64432657e-02 -6.88520148e-02 -1.29066736e-01 -8.01402107e-02 +4.17519212e-02 +6.85892999e-03 -8.43635648e-02 -7.81274810e-02 +7.81227201e-02 -6.03155121e-02 -6.42461926e-02 +7.34291226e-02 +9.99244750e-02 +2.00015306e-03 -1.22159138e-01 -8.24376717e-02 -5.17760217e-02 -6.86078519e-02 -3.18727493e-02 +4.76576090e-02 +1.10065967e-01 +7.24585950e-02 +1.21701986e-01 +1.80704743e-02 -4.96474132e-02 +4.74212766e-02 +1.33693069e-01 +3.57086509e-02 -7.36331642e-02 +1.10822976e-01 -5.00606745e-02 +7.04790205e-02 -9.96876657e-02 +5.23227751e-02 -1.43869042e-01 -3.86931151e-02 -4.83589247e-02 +1.09100312e-01 -1.28828079e-01 -1.23726368e-01 -1.10072181e-01 -1.11200377e-01 +7.28368610e-02 +1.00085557e-01 +2.30033249e-02 +1.23735160e-01 +7.86997676e-02 +5.75939119e-02 +1.05354279e-01 +1.07900709e-01 -6.03488758e-02 +4.26065028e-02 +7.77110755e-02 -1.17247529e-01 -1.30268246e-01 -1.24698192e-01 +4.80565727e-02 -1.12414658e-01 +5.25836647e-02 -5.95972687e-02 -7.20045939e-02 -1.37495995e-03 -1.40553430e-01 +1.27164513e-01 -3.34963128e-02 +5.12412339e-02 +1.13594562e-01 -3.12944949e-02 -4.92980778e-02 +1.98509395e-02 -8.83689821e-02 -9.73152220e-02 +1.40325874e-01 -1.22671500e-01 -3.43007222e-02 -5.46519831e-02 +6.28588051e-02 